{"learner":{"attributes":{"scikit_learn":"{\"_estimator_type\": \"classifier\"}"},"feature_names":["CreditScore","Age","Tenure","HasCrCard","IsActiveMember","EstimatedSalary","Gender_Female","Gender_Male","Total_Products_More Than 2 Products","Total_Products_One product","Total_Products_Two Products","Account_Balance_More Than zero Balance","Account_Balance_Zero Balance"],"feature_types":["int","float","int","int","int","float","i","i","i","i","i","i","i"],"gradient_booster":{"model":{"gbtree_model_param":{"num_parallel_tree":"1","num_trees":"100"},"iteration_indptr":[0,1,2,3,4,5,6,7,8,9,10,11,12,13,14,15,16,17,18,19,20,21,22,23,24,25,26,27,28,29,30,31,32,33,34,35,36,37,38,39,40,41,42,43,44,45,46,47,48,49,50,51,52,53,54,55,56,57,58,59,60,61,62,63,64,65,66,67,68,69,70,71,72,73,74,75,76,77,78,79,80,81,82,83,84,85,86,87,88,89,90,91,92,93,94,95,96,97,98,99,100],"tree_info":[0,0,0,0,0,0,0,0,0,0,0,0,0,0,0,0,0,0,0,0,0,0,0,0,0,0,0,0,0,0,0,0,0,0,0,0,0,0,0,0,0,0,0,0,0,0,0,0,0,0,0,0,0,0,0,0,0,0,0,0,0,0,0,0,0,0,0,0,0,0,0,0,0,0,0,0,0,0,0,0,0,0,0,0,0,0,0,0,0,0,0,0,0,0,0,0,0,0,0,0],"trees":[{"base_weights":[-8.617313E-3,-1.1377579E0,6.0211164E-1,-1.5613811E0,1.7402598E0,-3.820774E-1,1.1797081E0,-1.8479863E0,-1.1877283E0,8.095238E-1,5.780105E-1,-1.1415526E0,2.2873901E-1,5.869894E-1,1.45194E0,-5.6477344E-1,-1.54E0,-1.4911938E0,-2.905983E-1,-4.2857143E-1,1.3333334E0,-1.2239925E0,5.2500004E-1,-4.5030427E-1,5.937173E-1,-2.4927536E-1,8.786952E-1,9.718033E-1,5.9820896E-1,-1.5955056E0,-2.769231E-1,-1.615748E0,-1.2736573E0,-1.6049382E-1,-4.8387098E-1,7.5E-2,-3E-1,1.3333334E-1,4.6956524E-1,-1.3789474E0,-8.29582E-1,-5.8949625E-1,5.5789477E-1,4.909091E-1,-3.730887E-1,9.850107E-1,-1.137255E0,2.4852072E-1,1.1738036E0,-1.6385542E0,-2.2500001E-1,-1.1044776E0,-4.993007E-1,-1.4361234E0,-1.0238096E0,-5.6551725E-1,1.6393442E-1,-1.5075377E0,-1.2240437E0,4.8000002E-1,-9.830508E-1,-8.854962E-1,-2.0823245E-1,2.1138212E-1,-7.1153843E-1,8.873239E-1,5.72093E-1,-1.20000005E-1,-4.2857146E-1,5.478261E-1,-0E0,1.2888889E0,-7.4285716E-1,-1.1698114E0,-5.3846157E-1,-5E-1,-7.234042E-1,-1.1944444E0,-5.3103447E-1,-1.2608696E0,-7E-1,-7.1428575E-2,-8.3870965E-1,-1.9607843E-1,5.294118E-1,-9.5652175E-1,-1.5617977E0,-1.0625E0,-4.631579E-1,-7.692308E-1,-1.4285715E0,-5.3333336E-1,-1.0574713E0,4.909091E-1,-3.0886075E-1,-3E-1,4.2990655E-1,-4.680851E-1,-1.1549295E0,9.5652175E-1,1.0810811E-1,-2.007435E-1,5.225807E-1,1.1752577E0,5.849057E-1,2.2222223E-2,-1.1489362E0,-1.5E0,-3.529412E-2,-3.714286E-1,-2.6666668E-1,-1.4392524E0,-4.390244E-1,-7.5E-1,-1.4375E0,-9.032258E-1,-0E0,-3.255814E-1,1.7647061E-1,-3.75E-1,-1.0153847E0,-8E-1,9.3457945E-2,-3.9310345E-1,-8.5714296E-2,-9.4736844E-1,-1.6149068E0,-4.6516857E-1,-7.836257E-1,-6.0571426E-1,-4.3783784E-1,-2.1600002E-1,-4.8000002E-1,-1.1489362E0,-3.0656934E-1,-7.457627E-1,-1.1965812E0,-1.7522658E-1,-9.411765E-1,7.692308E-1,1.0169491E-1,-6.440678E-1,1.1111111E-1,-4.6363637E-1,-4.516129E-1,5.846154E-1,1.0727581E0,2.769231E-1,-3.0769232E-1,2.7906978E-1,-4.171123E-1,1.0030769E0,1.5061729E0,-4.56E-1,-1.846154E-1,-2.2500001E-1,-5.1428574E-1,-2.4705884E-1,1.0588236E-1,-1.5698925E0,-1.3333334E-1,2.6086958E-2,-2.7272728E-1,-3.75E-1,-6.0000002E-2,-1.7647061E-1,-4.8235297E-1,-1.20000005E-1,-1.0434783E0,2.4E-2,-2.1818183E-1,-2.2105263E-1,3.529412E-2,-3.818182E-1,-1.20000005E-1,-0E0,-1.0526316E0,-2.3529412E-1,6.0465115E-1,-3.3913043E-1,-1.5789475E-1,-1.4495413E0,-5.6666666E-1,-1.5384616E-1,-1.0243902E0,-1.0169491E-1,-8.333333E-1,-4.1538465E-1,-2.1600002E-1,-3.714286E-1,-1.3333334E-1,-9.411765E-1,1.20000005E-1,-1.3081081E0,-7.169811E-1,-3.8410595E-1,5.2727276E-1,-3.157895E-2,-1.1698114E0,4E-1,4.5000002E-1,-7.586207E-1,8.235294E-1,-9.818182E-1,-3.283582E-1,-6.666667E-2,-1.7647061E-1,4.909091E-1,4.4067797E-1,1.168E0,5.263158E-1,-7.1428573E-1,1.4285715E-1,9E-1,-2.4E-1,1.9354838E-1,-5.25E-1,1.0892532E0,5.1428574E-1,1.7395349E0,1.0088495E0,-2.888889E-1,-5.1428574E-1,-3.7777779E-1,-1.826087E-1,-4.3636367E-1,-1.20000005E-1,-2.1176472E-1,6.31579E-2,3.2903227E-1,-1.5E-1,-4.5625004E-1,-2.4000001E-1,1.1351352E-1,-3.4736842E-1,-2.3750001E-1,-4.8387098E-1,-2.2666667E-1,4.666667E-1,-2.777778E-1,-0E0,-2.4705884E-1,4.0000003E-2,-4.6285716E-1,-1.7746478E-1,-4.4000003E-1,-2.8695655E-1,1.20000005E-1,-3.7297297E-1,-2.75E-1,-8.372094E-2,-2.0000002E-1,-4.4000003E-1,2.5E-1,-6.0000002E-2,-3E-1,-1.0588236E-1,4.666667E-1,-0E0,-3.6E-1,-1.5E-1,3.6734696E-2,-3.818182E-1,-5.8823533E-2,2.0307694E-1,5.3333336E-1,3.3333337E-1,8.7804876E-2,4.5882356E-1,-3E-1,-7.5E-2,-7.5E-2,1.5E-1,6.0000002E-2,4.0000004E-1,-2.7272728E-1,7.5E-2,1.5E-1,-3.157895E-2,-3.3913043E-1,-1.2340426E-1,4.2950824E-1,2.7243245E-1,7.1428575E-2,4.0800002E-1,2.6666668E-1,5.343284E-1,-4.2857148E-2,3.9775285E-1],"categories":[],"categories_nodes":[],"categories_segments":[],"categories_sizes":[],"default_left":[0,0,0,0,0,0,0,0,0,0,0,0,0,0,0,0,0,0,0,0,0,0,0,0,0,0,0,0,0,0,0,0,0,0,0,0,0,0,0,0,0,0,0,0,0,0,0,0,0,0,0,0,0,0,0,0,0,0,0,0,0,0,0,0,0,0,0,0,0,0,0,0,0,0,0,0,0,0,0,0,0,0,0,0,0,0,0,0,0,0,0,0,0,0,0,0,0,0,0,0,0,0,0,0,0,0,0,0,0,0,0,0,0,0,0,0,0,0,0,0,0,0,0,0,0,0,0,0,0,0,0,0,0,0,0,0,0,0,0,0,0,0,0,0,0,0,0,0,0,0,0,0,0,0,0,0,0,0,0,0,0,0,0,0,0,0,0,0,0,0,0,0,0,0,0,0,0,0,0,0,0,0,0,0,0,0,0,0,0,0,0,0,0,0,0,0,0,0,0,0,0,0,0,0,0,0,0,0,0,0,0,0,0,0,0,0,0,0,0,0,0,0,0,0,0,0,0,0,0,0,0,0,0,0,0,0,0,0,0,0,0,0,0,0,0,0,0,0,0,0,0,0,0,0,0,0,0,0,0,0,0,0,0,0,0,0,0,0,0,0,0,0,0,0,0,0,0,0,0,0,0,0,0,0,0,0,0,0,0],"id":0,"left_children":[1,3,5,7,9,11,13,15,17,19,-1,21,23,25,27,-1,29,31,33,35,37,39,-1,41,-1,43,45,47,-1,49,-1,51,53,55,-1,-1,-1,-1,-1,57,59,61,-1,-1,63,65,67,69,71,73,-1,75,-1,77,79,81,83,85,87,-1,89,91,93,95,97,99,-1,-1,-1,-1,101,103,105,107,-1,-1,109,111,-1,113,115,117,119,121,-1,123,125,127,-1,129,131,133,135,-1,137,-1,139,141,143,145,147,149,-1,151,-1,-1,153,155,-1,-1,157,159,161,163,165,167,-1,169,-1,171,173,175,177,-1,-1,179,181,-1,183,185,-1,-1,-1,187,189,191,193,195,197,199,201,203,-1,-1,205,207,209,-1,211,213,215,217,219,-1,-1,-1,-1,-1,-1,221,-1,-1,-1,-1,-1,-1,-1,-1,223,-1,-1,-1,-1,-1,-1,-1,225,227,229,-1,-1,231,-1,233,235,237,239,-1,-1,-1,241,243,-1,245,247,249,-1,-1,251,253,-1,255,257,259,261,-1,-1,-1,263,265,267,269,271,273,275,277,279,281,283,285,287,-1,-1,-1,-1,-1,-1,-1,-1,-1,-1,-1,-1,-1,-1,-1,-1,-1,-1,-1,-1,-1,-1,-1,-1,-1,-1,-1,-1,-1,-1,-1,-1,-1,-1,-1,-1,-1,-1,-1,-1,-1,-1,-1,-1,-1,-1,-1,-1,-1,-1,-1,-1,-1,-1,-1,-1,-1,-1,-1,-1,-1,-1,-1,-1,-1,-1,-1,-1],"loss_changes":[1.7612308E3,1.0957255E3,9.4268E2,8.155017E1,1.8482788E1,2.8497968E2,1.6772534E2,1.7963867E0,9.274356E1,1.4190476E1,0E0,6.739838E1,4.06184E2,8.0842285E1,1.8422546E2,0E0,2.39357E-1,4.864868E0,1.4837455E1,2.9642859E0,2.3961372E0,1.5158691E1,0E0,8.035265E1,0E0,2.0747057E1,5.3683853E1,5.5410156E1,0E0,3.9078522E-1,0E0,2.1053467E0,2.4975433E0,1.0736192E1,0E0,0E0,0E0,0E0,0E0,1.939331E0,3.0563152E1,2.6138824E1,0E0,0E0,1.6321701E1,1.93378E1,2.1669464E0,3.312889E1,6.663504E1,9.411545E-1,0E0,2.3827648E0,0E0,2.4664764E0,2.341404E0,4.833164E0,2.671167E1,1.4809875E0,3.0869293E0,0E0,5.926613E0,7.3697968E0,1.9670528E1,8.569942E0,5.0725365E0,1.1381561E1,0E0,0E0,0E0,0E0,2.6226166E1,1.8826843E1,5.8905325E0,4.4267464E0,0E0,0E0,2.4320164E0,6.025715E0,0E0,9.9728394E-1,2.8451614E0,2.5386946E0,1.5240059E0,6.7630563E0,0E0,2.3551083E0,1.3743134E0,7.495842E0,0E0,4.9849014E0,1.6114311E0,5.929616E0,2.8801117E0,0E0,8.179357E0,0E0,2.9009247E0,5.4398103E0,4.1773167E0,7.824127E0,6.5530148E0,7.098071E0,0E0,1.2306183E1,0E0,0E0,1.3909006E0,3.214283E-1,0E0,0E0,2.8784313E0,2.7787476E0,2.6133232E0,1.9499998E0,1.3688736E0,6.7657757E-1,0E0,1.8095561E0,0E0,1.5127709E0,2.0643368E0,2.5263157E0,4.637764E0,0E0,0E0,1.3729954E-1,9.0922546E-1,0E0,6.324522E0,4.9344482E0,0E0,0E0,0E0,1.9089985E-1,5.3619747E0,6.981455E0,2.1911774E0,3.4083134E1,3.125884E0,2.907693E0,9.784577E0,2.823227E0,0E0,0E0,1.1216521E-1,6.6589546E0,7.0747986E0,0E0,2.4835162E0,7.145582E0,3.181632E0,6.284668E0,7.645645E0,0E0,0E0,0E0,0E0,0E0,0E0,3.8675308E-1,0E0,0E0,0E0,0E0,0E0,0E0,0E0,0E0,3.1239986E-1,0E0,0E0,0E0,0E0,0E0,0E0,0E0,1.9100485E0,3.7151704E0,6.392348E0,0E0,0E0,1.3070755E0,0E0,7.3850527E0,2.9346657E0,1.715857E1,2.3148136E0,0E0,0E0,0E0,5.6313725E0,4.451603E0,0E0,1.1753998E0,8.285976E0,3.967516E0,0E0,0E0,1.001257E0,2.7666664E0,0E0,3.5699797E-1,5.1241837E0,8.4545517E-1,7.2867947E0,0E0,0E0,0E0,6.789283E0,2.3608856E0,5.1183267E0,6.7857146E-1,1.1071428E0,2.7666664E0,4.3254547E0,7.623091E-1,2.287365E0,7.213684E0,5.8076196E0,3.1700134E-1,1.0503002E1,0E0,0E0,0E0,0E0,0E0,0E0,0E0,0E0,0E0,0E0,0E0,0E0,0E0,0E0,0E0,0E0,0E0,0E0,0E0,0E0,0E0,0E0,0E0,0E0,0E0,0E0,0E0,0E0,0E0,0E0,0E0,0E0,0E0,0E0,0E0,0E0,0E0,0E0,0E0,0E0,0E0,0E0,0E0,0E0,0E0,0E0,0E0,0E0,0E0,0E0,0E0,0E0,0E0,0E0,0E0,0E0,0E0,0E0,0E0,0E0,0E0,0E0,0E0,0E0,0E0,0E0,0E0,0E0],"parents":[2147483647,0,0,1,1,2,2,3,3,4,4,5,5,6,6,7,7,8,8,9,9,11,11,12,12,13,13,14,14,16,16,17,17,18,18,19,19,20,20,21,21,23,23,25,25,26,26,27,27,29,29,31,31,32,32,33,33,39,39,40,40,41,41,44,44,45,45,46,46,47,47,48,48,49,49,51,51,53,53,54,54,55,55,56,56,57,57,58,58,60,60,61,61,62,62,63,63,64,64,65,65,70,70,71,71,72,72,73,73,76,76,77,77,79,79,80,80,81,81,82,82,83,83,85,85,86,86,87,87,89,89,90,90,91,91,92,92,94,94,96,96,97,97,98,98,99,99,100,100,101,101,103,103,106,106,107,107,110,110,111,111,112,112,113,113,114,114,115,115,117,117,119,119,120,120,121,121,122,122,125,125,126,126,128,128,129,129,133,133,134,134,135,135,136,136,137,137,138,138,139,139,140,140,141,141,144,144,145,145,146,146,148,148,149,149,150,150,151,151,152,152,159,159,168,168,176,176,177,177,178,178,181,181,183,183,184,184,185,185,186,186,190,190,191,191,193,193,194,194,195,195,198,198,199,199,201,201,202,202,203,203,204,204,208,208,209,209,210,210,211,211,212,212,213,213,214,214,215,215,216,216,217,217,218,218,219,219,220,220],"right_children":[2,4,6,8,10,12,14,16,18,20,-1,22,24,26,28,-1,30,32,34,36,38,40,-1,42,-1,44,46,48,-1,50,-1,52,54,56,-1,-1,-1,-1,-1,58,60,62,-1,-1,64,66,68,70,72,74,-1,76,-1,78,80,82,84,86,88,-1,90,92,94,96,98,100,-1,-1,-1,-1,102,104,106,108,-1,-1,110,112,-1,114,116,118,120,122,-1,124,126,128,-1,130,132,134,136,-1,138,-1,140,142,144,146,148,150,-1,152,-1,-1,154,156,-1,-1,158,160,162,164,166,168,-1,170,-1,172,174,176,178,-1,-1,180,182,-1,184,186,-1,-1,-1,188,190,192,194,196,198,200,202,204,-1,-1,206,208,210,-1,212,214,216,218,220,-1,-1,-1,-1,-1,-1,222,-1,-1,-1,-1,-1,-1,-1,-1,224,-1,-1,-1,-1,-1,-1,-1,226,228,230,-1,-1,232,-1,234,236,238,240,-1,-1,-1,242,244,-1,246,248,250,-1,-1,252,254,-1,256,258,260,262,-1,-1,-1,264,266,268,270,272,274,276,278,280,282,284,286,288,-1,-1,-1,-1,-1,-1,-1,-1,-1,-1,-1,-1,-1,-1,-1,-1,-1,-1,-1,-1,-1,-1,-1,-1,-1,-1,-1,-1,-1,-1,-1,-1,-1,-1,-1,-1,-1,-1,-1,-1,-1,-1,-1,-1,-1,-1,-1,-1,-1,-1,-1,-1,-1,-1,-1,-1,-1,-1,-1,-1,-1,-1,-1,-1,-1,-1,-1,-1],"split_conditions":[1E0,1E0,3.63816E0,1E0,1E0,1E0,1E0,3.8544443E0,3.7629375E0,3.6128726E0,5.780105E-1,1E0,1E0,3.7425666E0,1E0,-5.6477344E-1,9E0,3.5935066E0,4.189655E0,6.86E2,7.264395E4,3.5575721E0,5.2500004E-1,1E0,5.937173E-1,3.6635616E0,4.189655E0,3.7167115E0,5.9820896E-1,1.8677525E5,-2.769231E-1,1.952565E4,1E0,1E0,-4.8387098E-1,7.5E-2,-3E-1,1.3333334E-1,4.6956524E-1,3.448735E0,3.583519E0,3.5073965E0,5.5789477E-1,4.909091E-1,1E0,1E0,4.2195077E0,3.6635616E0,4.1431346E0,4.561375E4,-2.2500001E-1,6.9028877E3,-4.993007E-1,1.340777E5,1.11906E5,4E0,1E0,2.224727E4,6.93E2,4.8000002E-1,7E0,1E0,3.5263605E0,3.6701076E0,7E0,9E0,5.72093E-1,-1.20000005E-1,-4.2857146E-1,5.478261E-1,1E0,1E0,4.189655E0,4.182757E4,-5.3846157E-1,-5E-1,6.36E2,7.24E2,-5.3103447E-1,1E0,3.7167115E0,3.9787729E0,8.023414E4,3.8328207E0,5.294118E-1,1.163134E4,5.23E2,5.75E2,-4.631579E-1,7.39E2,1E0,3.2622175E0,6.11E2,4.909091E-1,3.637586E0,-3E-1,3.713572E0,6E0,9E0,3.8082857E0,6.02E2,1E0,5.225807E-1,1.4075903E5,5.849057E-1,2.2222223E-2,1.0615222E5,6.27E2,-3.529412E-2,-3.714286E-1,1E0,1.1408373E5,5E0,6.32E2,1.5829325E4,3.6199768E0,-0E0,8.490278E4,1.7647061E-1,5.411338E4,3.9904447E0,5.254524E4,1.3240464E5,-3.9310345E-1,-8.5714296E-2,1.340777E5,7E0,-4.6516857E-1,6.13E2,3.6109178E0,-4.3783784E-1,-2.1600002E-1,-4.8000002E-1,1.0615222E5,2.479947E4,5.97E2,7.61E2,3.6128726E0,3E0,3.6950426E0,3.7167115E0,3.6950426E0,1.1111111E-1,-4.6363637E-1,6.38E2,3.7612002E0,4.060443E0,2.769231E-1,6.98E2,5E0,2E0,8E0,6.81E2,-4.56E-1,-1.846154E-1,-2.2500001E-1,-5.1428574E-1,-2.4705884E-1,1.0588236E-1,3.6291595E0,-1.3333334E-1,2.6086958E-2,-2.7272728E-1,-3.75E-1,-6.0000002E-2,-1.7647061E-1,-4.8235297E-1,-1.20000005E-1,1.7126066E5,2.4E-2,-2.1818183E-1,-2.2105263E-1,3.529412E-2,-3.818182E-1,-1.20000005E-1,-0E0,1.3798058E5,6.36E2,1.7063898E5,-3.3913043E-1,-1.5789475E-1,1.773558E5,-5.6666666E-1,7E0,3.5553482E0,3.5935066E0,7.2E2,-4.1538465E-1,-2.1600002E-1,-3.714286E-1,3E0,8.490278E4,1.20000005E-1,3.417204E0,7.82E2,1E0,5.2727276E-1,-3.157895E-2,8.061847E4,6.11E2,4.5000002E-1,1.0615222E5,3.7376697E0,6.74E2,6.61E2,-6.666667E-2,-1.7647061E-1,4.909091E-1,3.7629375E0,3.827497E0,1.7507247E5,9.388175E4,3.8544443E0,6.26E2,3.6701076E0,6.18E2,2.602237E4,4.473081E4,1.1613701E5,3.7425666E0,3.786378E0,-2.888889E-1,-5.1428574E-1,-3.7777779E-1,-1.826087E-1,-4.3636367E-1,-1.20000005E-1,-2.1176472E-1,6.31579E-2,3.2903227E-1,-1.5E-1,-4.5625004E-1,-2.4000001E-1,1.1351352E-1,-3.4736842E-1,-2.3750001E-1,-4.8387098E-1,-2.2666667E-1,4.666667E-1,-2.777778E-1,-0E0,-2.4705884E-1,4.0000003E-2,-4.6285716E-1,-1.7746478E-1,-4.4000003E-1,-2.8695655E-1,1.20000005E-1,-3.7297297E-1,-2.75E-1,-8.372094E-2,-2.0000002E-1,-4.4000003E-1,2.5E-1,-6.0000002E-2,-3E-1,-1.0588236E-1,4.666667E-1,-0E0,-3.6E-1,-1.5E-1,3.6734696E-2,-3.818182E-1,-5.8823533E-2,2.0307694E-1,5.3333336E-1,3.3333337E-1,8.7804876E-2,4.5882356E-1,-3E-1,-7.5E-2,-7.5E-2,1.5E-1,6.0000002E-2,4.0000004E-1,-2.7272728E-1,7.5E-2,1.5E-1,-3.157895E-2,-3.3913043E-1,-1.2340426E-1,4.2950824E-1,2.7243245E-1,7.1428575E-2,4.0800002E-1,2.6666668E-1,5.343284E-1,-4.2857148E-2,3.9775285E-1],"split_indices":[9,8,1,11,11,6,6,1,1,1,0,8,7,1,7,0,2,1,1,0,5,1,0,8,0,1,1,1,0,5,0,5,6,6,0,0,0,0,0,1,1,1,0,0,3,8,1,1,1,5,0,5,0,5,5,2,7,5,0,0,2,3,1,1,2,2,0,0,0,0,8,8,1,5,0,0,0,0,0,3,1,1,5,1,0,5,0,0,0,0,3,1,0,0,1,0,1,2,2,1,0,3,0,5,0,0,5,0,0,0,7,5,2,0,5,1,0,5,0,5,1,5,5,0,0,5,2,0,0,1,0,0,0,5,5,0,0,1,2,1,1,1,0,0,0,1,1,0,0,2,2,2,0,0,0,0,0,0,0,1,0,0,0,0,0,0,0,0,5,0,0,0,0,0,0,0,5,0,5,0,0,5,0,2,1,1,0,0,0,0,2,5,0,1,0,11,0,0,5,0,0,5,1,0,0,0,0,0,1,1,5,5,1,0,1,0,5,5,5,1,1,0,0,0,0,0,0,0,0,0,0,0,0,0,0,0,0,0,0,0,0,0,0,0,0,0,0,0,0,0,0,0,0,0,0,0,0,0,0,0,0,0,0,0,0,0,0,0,0,0,0,0,0,0,0,0,0,0,0,0,0,0,0,0,0,0,0,0,0],"split_type":[0,0,0,0,0,0,0,0,0,0,0,0,0,0,0,0,0,0,0,0,0,0,0,0,0,0,0,0,0,0,0,0,0,0,0,0,0,0,0,0,0,0,0,0,0,0,0,0,0,0,0,0,0,0,0,0,0,0,0,0,0,0,0,0,0,0,0,0,0,0,0,0,0,0,0,0,0,0,0,0,0,0,0,0,0,0,0,0,0,0,0,0,0,0,0,0,0,0,0,0,0,0,0,0,0,0,0,0,0,0,0,0,0,0,0,0,0,0,0,0,0,0,0,0,0,0,0,0,0,0,0,0,0,0,0,0,0,0,0,0,0,0,0,0,0,0,0,0,0,0,0,0,0,0,0,0,0,0,0,0,0,0,0,0,0,0,0,0,0,0,0,0,0,0,0,0,0,0,0,0,0,0,0,0,0,0,0,0,0,0,0,0,0,0,0,0,0,0,0,0,0,0,0,0,0,0,0,0,0,0,0,0,0,0,0,0,0,0,0,0,0,0,0,0,0,0,0,0,0,0,0,0,0,0,0,0,0,0,0,0,0,0,0,0,0,0,0,0,0,0,0,0,0,0,0,0,0,0,0,0,0,0,0,0,0,0,0,0,0,0,0,0,0,0,0,0,0,0,0,0,0,0,0,0,0,0,0,0,0],"sum_hessian":[2.552E3,8.955E2,1.6565E3,7.81E2,1.145E2,6.1275E2,1.04375E3,4.3975E2,3.4125E2,2E1,9.45E1,2.7275E2,3.4E2,3.295E2,7.1425E2,3.9075E2,4.9E1,2.545E2,8.675E1,6E0,1.4E1,2.6575E2,7E0,2.455E2,9.45E1,8.525E1,2.4425E2,3.8025E2,3.34E2,4.35E1,5.5E0,1.5775E2,9.675E1,8E1,6.75E0,3E0,3E0,3.5E0,1.05E1,1.89E2,7.675E1,2.3225E2,1.325E1,4.5E0,8.075E1,2.325E2,1.175E1,8.35E1,2.9675E2,4.05E1,3E0,1.575E1,1.42E2,5.575E1,4.1E1,3.525E1,4.475E1,9.85E1,9.05E1,4E0,7.275E1,1.3E2,1.0225E2,2.975E1,5.1E1,2.12E2,2.05E1,4E0,7.75E0,1.05E1,7.3E1,2.8025E2,1.65E1,1.225E1,2.825E1,5E0,1.075E1,3.5E1,2.075E1,2.2E1,1.9E1,1.3E1,2.225E1,3.725E1,7.5E0,1.05E1,8.8E1,6.3E1,2.75E1,5.1E1,2.175E1,4.4E1,8.6E1,4.5E0,9.775E1,4E0,2.575E1,3.425E1,1.675E1,1.945E2,1.75E1,6.625E1,6.75E0,2.415E2,3.875E1,5.75E0,1.075E1,9E0,3.25E0,4.25E0,6.5E0,2.575E1,9.25E0,7E0,1.5E1,1.45E1,4.5E0,9.75E0,3.25E0,7E0,1.525E1,1.15E1,2.575E1,6.25E0,4.25E0,8.5E0,7.95E1,2.125E1,4.175E1,4.275E1,8.25E0,5.25E0,1.65E1,1.075E1,3.325E1,2.85E1,5.75E1,8.175E1,1.6E1,1.2E1,1.375E1,2.85E1,5.75E0,1E1,6.75E0,4.775E1,1.4675E2,5.5E0,1.2E1,2.05E1,4.575E1,1.615E2,8E1,5.25E0,5.5E0,3E0,6E0,3.25E0,3.25E0,2.225E1,3.5E0,4.75E0,4.5E0,3E0,4E0,3.25E0,1.175E1,4E0,1.05E1,5.25E0,4.5E0,3.75E0,3.25E0,1E1,5.25E0,3E0,8.5E0,1.6E1,9.75E0,4.75E0,3.75E0,5.35E1,2.6E1,1.2E1,2.975E1,1.375E1,2.9E1,5.5E0,5.25E0,4.25E0,2.9E1,2.45E1,4E0,4.525E1,1.225E1,7.45E1,7.25E0,3.75E0,1.225E1,9E0,3E0,6.25E0,7.5E0,1.275E1,1.575E1,3.5E0,3.25E0,4.5E0,4.325E1,1.24E2,2.275E1,6E0,6E0,9E0,1.15E1,6.75E0,3.9E1,1.3625E2,2.525E1,5.275E1,2.725E1,5.75E0,1.65E1,5.75E0,4.75E0,4.5E0,4E0,7.5E0,8.5E0,6.75E0,3E0,4.7E1,6.5E0,8.25E0,3.75E0,2.3E1,6.75E0,1.025E1,3.5E0,2.6E1,3E0,7.5E0,2.15E1,7.75E0,1.675E1,2.9E1,1.625E1,4E0,8.25E0,1.1E1,6.35E1,5.75E0,6.5E0,5E0,4E0,3E0,3.25E0,3.5E0,4E0,7.75E0,5E0,1.125E1,4.5E0,1.175E1,3.15E1,8E0,1.16E2,1.95E1,3.25E0,3E0,3E0,3E0,3E0,4E0,5E0,4.5E0,7E0,3E0,3.75E0,4.75E0,3.425E1,4.475E1,9.15E1,2E1,5.25E0,3.5E0,4.925E1,6E0,2.125E1],"tree_param":{"num_deleted":"0","num_feature":"13","num_nodes":"289","size_leaf_vector":"1"}},{"base_weights":[-1.6491907E-2,4.718037E-1,-8.298055E-1,-1.5404437E-1,1.148003E0,-1.1719071E0,-4.196133E-1,-7.9317373E-1,3.2261124E-1,4.4255108E-1,1.2584571E0,-1.3440882E0,-9.687569E-1,-9.7600204E-1,-1.8949476E-1,-1.2979615E0,-5.4314846E-1,-1.9351487E-1,4.6903938E-1,1.2016356E0,-5.3086615E-1,1.1116979E0,4.8295453E-1,-1.2242495E0,-4.3692553E-1,-1.1653318E0,4.6207318E-1,-1.5169814E-1,-4.2846462E-1,-3.924059E-1,4.7425315E-1,-6.0823953E-1,-4.5413193E-1,-7.3473334E-1,5.8402216E-1,-9.8886317E-1,1.3137332E-1,5.837335E-1,1.4314109E0,-7.297699E-1,2.2311181E-1,8.4912354E-1,1.4678475E0,-1.2957343E0,-8.380756E-1,-9.799902E-1,-4.040065E-1,1.01126425E-1,-1.019358E0,-7.6742494E-1,-1.6047731E-2,-1.8608284E-1,-8.8399965E-1,-8.9651626E-1,-2.6150724E-1,-1.1575933E-1,-1.3100694E0,-1.528981E-1,5.407916E-1,-1.2698993E-1,3.7613517E-1,2.279515E-1,4.445674E-1,-1.0432057E0,-3.769196E-1,4.2391312E-1,1.0425979E0,4.4474462E-1,1.3850757E-1,-1.0066717E0,-1.3846924E0,-4.7973028E-1,-3.577247E-1,-1.191497E0,-7.1301293E-1,-5.126979E-1,7.0622236E-1,-4.1632774E-1,-7.090431E-2,-6.1702365E-1,-1.2231473E0,-4.2386425E-1,4.4897208E-1,-5.360091E-1,1.3554838E-1,-3.637465E-1,-5.0364906E-1,-1.088714E0,-8.071409E-1,-1.254104E-1,-4.0218672E-1,-1.677165E-1,2.5940675E-2,-3.325414E-1,-4.339468E-1,2.0938687E-1,-3.7821844E-1,-1.816302E-1,9.261657E-2,-9.558798E-2,-3.5716614E-1,-8.285385E-1,-2.6242254E-2,1.3334188E-1,6.745963E-1,6.592405E-1,4.5977288E-1,-3.189575E-1,-1.6555296E-1,-4.3591937E-1,-1.0865846E0,-7.6660097E-1,1.0604303E-1,-1.2848324E0,-7.121124E-1,-3.2902658E-1,-7.808032E-1,-2.6894882E-1,-3.309072E-1,2.8390005E-1,4.630371E-1,-2.0843238E-1,-8.356341E-1,-1.3745849E-1,-4.0891227E-1,-2.9955944E-1,-1.1223098E0,4.849517E-2,-3.286964E-1,-3.0225363E-1,-2.9784083E-2,-1.1714743E0,-6.6318244E-1,-1.0094781E0,-6.550565E-1,5.29852E-1,-2.4536893E-1,1.8848342E-1,-2.1511061E-1,-5.70712E-1,3.5151786E-1,-6.9569963E-1,-1.21075615E-1,-1.0714917E-1,-3.054951E-1,8.680503E-2,-2.2637093E-1,3.7900877E-1,-2.4765262E-1,4.2281157E-1,5.7734585E-1,8.1918514E-1,2.843464E-1,-1.4015035E-1,-3.5711947E-1,-3.4521687E-1,-9.29213E-2,-4.1105008E-1,-6.430644E-1,2.5976324E-2,-3.5580713E-1,-1.752722E-1,4.802301E-3,-6.480074E-1,-3.237313E-1,4.130344E-2,-2.0805131E-1,2.0692144E-1,5.695504E-2,3.2162318E-1,-3.9766225E-1,-1.0975832E0,-3.2907015E-1,1.3348076E-1,-5.41446E-1,-7.776604E-1,-4.1011435E-1,-1.8304303E-1,-3.6755255E-1,-3.7919804E-1,-3.6186294E-3,-3.965673E-1,-1.0996087E0,-3.346561E-2,-7.663252E-1,2.053102E-1,6.615161E-2,-6.1390036E-1,-5.3124446E-3,1.591888E-1,-4.5190713E-1,-5.7359025E-2,-2.7868474E-1,2.6852554E-1,3.515742E-1,-3.3130276E-1,-5.445093E-1,-5.20669E-1,-1.2999249E-2,-2.0317855E-1,5.3041875E-2,7.189456E-2,4.635595E-1,-1.0168867E-3,6.9543165E-1,1.0238471E0,6.518784E-1,-1.6034473E-1,4.890857E-1,-6.364122E-2,-2.7181038E-1,-7.733427E-1,-2.6264635E-1,-1.4514217E-1,2.392937E-1,-9.6596926E-1,-1.339102E-1,-9.767478E-1,-4.6483403E-1,2.489867E-1,-8.573835E-1,-1.7343251E-1,2.9980603E-1,-3.5250694E-1,-9.895736E-1,-3.067612E-1,-1.11997716E-1,1.1447086E-1,-3.120108E-1,-3.4688133E-1,-1.2400821E-1,1.0707662E-1,-2.197598E-1,-1.9515087E-1,-4.3122154E-1,-5.43848E-2,-2.8876507E-1,1.7571235E-1,-9.8921E-2,-2.4766855E-1,2.6606824E-2,-3.6023292E-3,1.2029839E-1,-8.6390354E-2,-2.964977E-1,-2.1877904E-1,3.2210816E-2,1.7362347E-1,-3.9847497E-2,1.05972454E-1,-1.0669468E-1,5.28923E-2,-5.99747E-2,9.2210226E-2,2.8379503E-1,3.434302E-1,6.341204E-2,1.2792863E-1,3.4010193E-1,2.000106E-1,-1.0698677E-1,-9.141909E-2,-3.0323344E-1,-2.1229884E-2,-1.21229805E-1,-1.2296038E-1,-3.6559796E-1,-2.036694E-1,8.745351E-2,-3.107158E-1,-7.96328E-2,-4.6422437E-2,1.7666218E-1,-4.4232306E-1,-1.14939064E-1,-6.6356115E-2,1.43793E-1,1.0072957E-1,-1.5640864E-1,-1.1001656E-1,-3.4886318E-1],"categories":[],"categories_nodes":[],"categories_segments":[],"categories_sizes":[],"default_left":[0,0,0,0,0,0,0,0,0,0,0,0,0,0,0,0,0,0,0,0,0,0,0,0,0,0,0,0,0,0,0,0,0,0,0,0,0,0,0,0,0,0,0,0,0,0,0,0,0,0,0,0,0,0,0,0,0,0,0,0,0,0,0,0,0,0,0,0,0,0,0,0,0,0,0,0,0,0,0,0,0,0,0,0,0,0,0,0,0,0,0,0,0,0,0,0,0,0,0,0,0,0,0,0,0,0,0,0,0,0,0,0,0,0,0,0,0,0,0,0,0,0,0,0,0,0,0,0,0,0,0,0,0,0,0,0,0,0,0,0,0,0,0,0,0,0,0,0,0,0,0,0,0,0,0,0,0,0,0,0,0,0,0,0,0,0,0,0,0,0,0,0,0,0,0,0,0,0,0,0,0,0,0,0,0,0,0,0,0,0,0,0,0,0,0,0,0,0,0,0,0,0,0,0,0,0,0,0,0,0,0,0,0,0,0,0,0,0,0,0,0,0,0,0,0,0,0,0,0,0,0,0,0,0,0,0,0,0,0,0,0,0,0,0,0,0,0,0,0,0,0,0,0,0,0,0,0,0,0,0,0,0,0,0,0,0,0,0,0,0,0,0,0,0,0,0,0,0,0,0,0],"id":1,"left_children":[1,3,5,7,9,11,13,15,17,19,21,23,25,27,29,31,33,35,-1,37,39,41,-1,43,-1,45,-1,47,-1,49,-1,51,-1,53,-1,55,57,59,61,63,-1,65,67,69,71,73,-1,75,77,79,81,83,85,87,89,91,93,95,-1,97,-1,-1,-1,99,101,103,105,-1,-1,107,109,111,-1,113,115,117,119,-1,-1,121,123,125,-1,127,-1,-1,129,131,133,135,-1,-1,137,-1,-1,139,141,-1,-1,-1,-1,143,145,147,149,151,-1,-1,-1,-1,153,155,-1,157,159,161,163,-1,165,-1,167,169,171,-1,-1,173,175,-1,-1,-1,-1,177,179,181,183,185,187,-1,189,191,193,195,197,-1,-1,-1,199,201,-1,-1,203,205,207,-1,-1,-1,-1,-1,209,-1,-1,-1,-1,211,-1,-1,-1,-1,-1,213,215,217,219,221,223,225,-1,-1,-1,-1,-1,227,229,231,233,-1,-1,235,237,-1,239,-1,-1,241,-1,-1,243,245,247,-1,-1,249,-1,251,253,255,257,-1,259,-1,-1,261,263,-1,-1,265,267,269,-1,271,273,-1,275,277,279,-1,-1,-1,-1,-1,-1,-1,-1,-1,-1,-1,-1,-1,-1,-1,-1,-1,-1,-1,-1,-1,-1,-1,-1,-1,-1,-1,-1,-1,-1,-1,-1,-1,-1,-1,-1,-1,-1,-1,-1,-1,-1,-1,-1,-1,-1,-1,-1,-1,-1,-1,-1,-1,-1,-1,-1],"loss_changes":[9.59993E2,6.3940283E2,1.2676129E2,2.3949933E2,5.6024414E1,1.5973694E1,5.2813225E1,4.167273E1,2.8884976E2,7.441406E1,3.056018E1,1.7808533E0,1.15308E2,4.4838654E1,1.06254745E2,1.5527496E1,1.0936694E2,8.258138E1,0E0,7.1727524E0,1.1809057E1,4.0435852E1,0E0,2.6232452E0,0E0,5.8734436E0,0E0,9.741438E0,0E0,3.7337543E1,0E0,3.0959272E0,0E0,1.5906654E1,0E0,2.5833862E1,1.08325005E2,8.244507E0,2.4452972E-1,3.9140491E0,0E0,2.086029E1,2.080597E0,1.4743805E0,2.4523277E0,5.334198E0,0E0,1.3337041E1,2.5578423E0,8.328918E0,8.273943E1,2.9951282E0,1.472641E0,1.8130722E0,7.927826E0,1.6487561E0,2.5685883E-1,1.6020676E1,0E0,2.0937264E0,0E0,0E0,0E0,1.7622795E0,3.1277652E0,5.931156E0,3.2289276E1,0E0,0E0,1.8224144E-1,1.0536194E-1,3.5014606E0,0E0,1.7523193E0,1.0679798E0,9.5370007E-1,6.13575E-1,0E0,0E0,8.906418E0,2.7856178E0,8.833221E0,0E0,3.46521E0,0E0,0E0,1.8228772E0,8.738518E-1,2.7492523E0,4.0645423E0,0E0,0E0,3.1364102E0,0E0,0E0,8.574907E0,9.774443E0,0E0,0E0,0E0,0E0,4.1095495E-1,8.3775246E-1,9.624664E0,2.3397007E0,5.83622E0,0E0,0E0,0E0,0E0,6.90176E-1,1.463325E0,0E0,1.7834396E0,4.6290894E0,8.340628E-1,9.85548E-1,0E0,2.4310064E0,0E0,5.445385E-1,3.815627E0,8.38266E0,0E0,0E0,9.606456E0,2.5211334E-1,0E0,0E0,0E0,0E0,3.9603806E-1,3.8720016E0,2.0890388E0,4.5475082E0,2.3445034E-1,3.8002458E0,0E0,2.9782739E0,1.4567654E0,4.077369E0,2.724411E0,2.926956E0,0E0,0E0,0E0,1.5819368E0,1.1404847E1,0E0,0E0,2.7780247E0,1.7436943E0,5.592654E0,0E0,0E0,0E0,0E0,0E0,6.6842127E-1,0E0,0E0,0E0,0E0,1.3392448E0,0E0,0E0,0E0,0E0,0E0,4.3063188E0,3.9988008E0,8.347702E-1,7.508927E0,4.1291475E0,4.6125984E0,4.889841E-1,0E0,0E0,0E0,0E0,0E0,4.1141543E0,1.0496445E0,3.2865407E0,3.4204292E0,0E0,0E0,2.3820696E0,5.3784122E0,0E0,2.559856E0,0E0,0E0,2.2300043E0,0E0,0E0,4.4136868E0,1.9695077E0,3.9409215E0,0E0,0E0,3.313255E0,0E0,3.1365007E-1,2.992899E0,2.6974545E0,4.0238914E0,0E0,4.137524E0,0E0,0E0,2.3158379E0,2.2521895E-1,0E0,0E0,7.0466137E-1,4.828334E0,1.2619095E0,0E0,1.7627902E0,3.1533308E0,0E0,2.70117E0,5.146015E0,1.3897305E0,0E0,0E0,0E0,0E0,0E0,0E0,0E0,0E0,0E0,0E0,0E0,0E0,0E0,0E0,0E0,0E0,0E0,0E0,0E0,0E0,0E0,0E0,0E0,0E0,0E0,0E0,0E0,0E0,0E0,0E0,0E0,0E0,0E0,0E0,0E0,0E0,0E0,0E0,0E0,0E0,0E0,0E0,0E0,0E0,0E0,0E0,0E0,0E0,0E0,0E0,0E0,0E0,0E0,0E0,0E0,0E0],"parents":[2147483647,0,0,1,1,2,2,3,3,4,4,5,5,6,6,7,7,8,8,9,9,10,10,11,11,12,12,13,13,14,14,15,15,16,16,17,17,19,19,20,20,21,21,23,23,25,25,27,27,29,29,31,31,33,33,35,35,36,36,37,37,38,38,39,39,41,41,42,42,43,43,44,44,45,45,47,47,48,48,49,49,50,50,51,51,52,52,53,53,54,54,55,55,56,56,57,57,59,59,63,63,64,64,65,65,66,66,69,69,70,70,71,71,73,73,74,74,75,75,76,76,79,79,80,80,81,81,83,83,86,86,87,87,88,88,89,89,92,92,95,95,96,96,101,101,102,102,103,103,104,104,105,105,110,110,111,111,113,113,114,114,115,115,116,116,118,118,120,120,121,121,122,122,125,125,126,126,131,131,132,132,133,133,134,134,135,135,136,136,138,138,139,139,140,140,141,141,142,142,146,146,147,147,150,150,151,151,152,152,158,158,163,163,169,169,170,170,171,171,172,172,173,173,174,174,175,175,181,181,182,182,183,183,184,184,187,187,188,188,190,190,193,193,196,196,197,197,198,198,201,201,203,203,204,204,205,205,206,206,208,208,211,211,212,212,215,215,216,216,217,217,219,219,220,220,222,222,223,223,224,224],"right_children":[2,4,6,8,10,12,14,16,18,20,22,24,26,28,30,32,34,36,-1,38,40,42,-1,44,-1,46,-1,48,-1,50,-1,52,-1,54,-1,56,58,60,62,64,-1,66,68,70,72,74,-1,76,78,80,82,84,86,88,90,92,94,96,-1,98,-1,-1,-1,100,102,104,106,-1,-1,108,110,112,-1,114,116,118,120,-1,-1,122,124,126,-1,128,-1,-1,130,132,134,136,-1,-1,138,-1,-1,140,142,-1,-1,-1,-1,144,146,148,150,152,-1,-1,-1,-1,154,156,-1,158,160,162,164,-1,166,-1,168,170,172,-1,-1,174,176,-1,-1,-1,-1,178,180,182,184,186,188,-1,190,192,194,196,198,-1,-1,-1,200,202,-1,-1,204,206,208,-1,-1,-1,-1,-1,210,-1,-1,-1,-1,212,-1,-1,-1,-1,-1,214,216,218,220,222,224,226,-1,-1,-1,-1,-1,228,230,232,234,-1,-1,236,238,-1,240,-1,-1,242,-1,-1,244,246,248,-1,-1,250,-1,252,254,256,258,-1,260,-1,-1,262,264,-1,-1,266,268,270,-1,272,274,-1,276,278,280,-1,-1,-1,-1,-1,-1,-1,-1,-1,-1,-1,-1,-1,-1,-1,-1,-1,-1,-1,-1,-1,-1,-1,-1,-1,-1,-1,-1,-1,-1,-1,-1,-1,-1,-1,-1,-1,-1,-1,-1,-1,-1,-1,-1,-1,-1,-1,-1,-1,-1,-1,-1,-1,-1,-1,-1],"split_conditions":[1E0,3.7167115E0,3.6701076E0,1E0,1E0,1E0,1E0,1E0,1E0,1E0,1E0,1E0,1E0,1E0,1E0,1E0,1E0,1E0,4.6903938E-1,3.8082857E0,3.913159E0,3.8942218E0,4.8295453E-1,1E0,-4.3692553E-1,1E0,4.6207318E-1,4.0430512E0,-4.2846462E-1,1E0,4.7425315E-1,6.11E2,-4.5413193E-1,3.6128726E0,5.8402216E-1,1E0,1E0,1E0,2E0,1E0,2.2311181E-1,1E0,1E1,1E0,6.47E2,3.5073965E0,-4.040065E-1,3.786378E0,7.22E2,4.060443E0,1E0,5.79E2,6.87E2,5.97E2,7.67E2,3.417204E0,5E0,1E0,5.407916E-1,6.05E2,3.7613517E-1,2.279515E-1,4.445674E-1,5.53E2,3.7629375E0,3.786378E0,1E0,4.4474462E-1,1.3850757E-1,3.6128726E0,3.5935066E0,6.12E2,-3.577247E-1,1E0,3.5512478E0,5.55E2,3E0,-4.1632774E-1,-7.090431E-2,1E0,2E0,4.0775375E0,4.4897208E-1,5.23E2,1.3554838E-1,-3.637465E-1,3.398879E0,3.5575721E0,3.448735E0,2E0,-4.0218672E-1,-1.677165E-1,3.5263605E0,-3.325414E-1,-4.339468E-1,5.58E2,3.5385299E0,-1.816302E-1,9.261657E-2,-9.558798E-2,-3.5716614E-1,6.59E2,3.8234026E0,3.7841897E0,3.806319E0,1E0,4.5977288E-1,-3.189575E-1,-1.6555296E-1,-4.3591937E-1,2E0,3.5385299E0,1.0604303E-1,7.51E2,4E0,5E0,7.16E2,-2.6894882E-1,6.61E2,2.8390005E-1,6.26E2,5.79E2,3.8544443E0,-1.3745849E-1,-4.0891227E-1,1E0,6.29E2,4.849517E-2,-3.286964E-1,-3.0225363E-1,-2.9784083E-2,3.218876E0,4E0,2E0,3.4965076E0,6.14E2,6.08E2,1.8848342E-1,5.5E2,3.5575721E0,3.6950426E0,3E0,5.85E2,-1.0714917E-1,-3.054951E-1,8.680503E-2,3.8544443E0,3.7629375E0,-2.4765262E-1,4.2281157E-1,3.8082857E0,5E0,3.7425666E0,-1.4015035E-1,-3.5711947E-1,-3.4521687E-1,-9.29213E-2,-4.1105008E-1,3.398879E0,2.5976324E-2,-3.5580713E-1,-1.752722E-1,4.802301E-3,6.67E2,-3.237313E-1,4.130344E-2,-2.0805131E-1,2.0692144E-1,5.695504E-2,5.02E2,3E0,7.4E2,6E0,3.7167115E0,7E0,5.85E2,-4.1011435E-1,-1.8304303E-1,-3.6755255E-1,-3.7919804E-1,-3.6186294E-3,6.84E2,8.06E2,7.4E2,7.77E2,2.053102E-1,6.615161E-2,6E0,1E0,1.591888E-1,6.79E2,-5.7359025E-2,-2.7868474E-1,3.4738293E0,3.515742E-1,-3.3130276E-1,1E0,3.6950426E0,3.583519E0,-2.0317855E-1,5.3041875E-2,1E0,4.635595E-1,5E0,6.11E2,7.52E2,7.15E2,-1.6034473E-1,3.8659573E0,-6.364122E-2,-2.7181038E-1,4E0,6.88E2,-1.4514217E-1,2.392937E-1,6.53E2,6.56E2,7.14E2,-4.6483403E-1,6.26E2,6.47E2,-1.7343251E-1,3E0,5.66E2,6.14E2,-3.067612E-1,-1.11997716E-1,1.1447086E-1,-3.120108E-1,-3.4688133E-1,-1.2400821E-1,1.0707662E-1,-2.197598E-1,-1.9515087E-1,-4.3122154E-1,-5.43848E-2,-2.8876507E-1,1.7571235E-1,-9.8921E-2,-2.4766855E-1,2.6606824E-2,-3.6023292E-3,1.2029839E-1,-8.6390354E-2,-2.964977E-1,-2.1877904E-1,3.2210816E-2,1.7362347E-1,-3.9847497E-2,1.05972454E-1,-1.0669468E-1,5.28923E-2,-5.99747E-2,9.2210226E-2,2.8379503E-1,3.434302E-1,6.341204E-2,1.2792863E-1,3.4010193E-1,2.000106E-1,-1.0698677E-1,-9.141909E-2,-3.0323344E-1,-2.1229884E-2,-1.21229805E-1,-1.2296038E-1,-3.6559796E-1,-2.036694E-1,8.745351E-2,-3.107158E-1,-7.96328E-2,-4.6422437E-2,1.7666218E-1,-4.4232306E-1,-1.14939064E-1,-6.6356115E-2,1.43793E-1,1.0072957E-1,-1.5640864E-1,-1.1001656E-1,-3.4886318E-1],"split_indices":[4,1,1,6,11,6,11,11,7,10,12,10,7,10,12,10,12,11,0,1,1,1,0,12,0,10,0,1,0,6,0,0,0,1,0,10,12,6,2,6,0,6,2,3,0,1,0,1,0,1,7,0,0,0,0,1,2,3,0,0,0,0,0,0,1,1,7,0,0,1,1,0,0,12,1,0,2,0,0,3,2,1,0,0,0,0,1,1,1,2,0,0,1,0,0,0,1,0,0,0,0,0,1,1,1,10,0,0,0,0,2,1,0,0,2,2,0,0,0,0,0,0,1,0,0,3,0,0,0,0,0,1,2,2,1,0,0,0,0,1,1,2,0,0,0,0,1,1,0,0,1,2,1,0,0,0,0,0,1,0,0,0,0,0,0,0,0,0,0,0,2,0,2,1,2,0,0,0,0,0,0,0,0,0,0,0,0,2,3,0,0,0,0,1,0,0,10,1,1,0,0,10,0,2,0,0,0,0,1,0,0,2,0,0,0,0,0,0,0,0,0,0,2,0,0,0,0,0,0,0,0,0,0,0,0,0,0,0,0,0,0,0,0,0,0,0,0,0,0,0,0,0,0,0,0,0,0,0,0,0,0,0,0,0,0,0,0,0,0,0,0,0,0,0,0,0,0,0,0,0,0],"split_type":[0,0,0,0,0,0,0,0,0,0,0,0,0,0,0,0,0,0,0,0,0,0,0,0,0,0,0,0,0,0,0,0,0,0,0,0,0,0,0,0,0,0,0,0,0,0,0,0,0,0,0,0,0,0,0,0,0,0,0,0,0,0,0,0,0,0,0,0,0,0,0,0,0,0,0,0,0,0,0,0,0,0,0,0,0,0,0,0,0,0,0,0,0,0,0,0,0,0,0,0,0,0,0,0,0,0,0,0,0,0,0,0,0,0,0,0,0,0,0,0,0,0,0,0,0,0,0,0,0,0,0,0,0,0,0,0,0,0,0,0,0,0,0,0,0,0,0,0,0,0,0,0,0,0,0,0,0,0,0,0,0,0,0,0,0,0,0,0,0,0,0,0,0,0,0,0,0,0,0,0,0,0,0,0,0,0,0,0,0,0,0,0,0,0,0,0,0,0,0,0,0,0,0,0,0,0,0,0,0,0,0,0,0,0,0,0,0,0,0,0,0,0,0,0,0,0,0,0,0,0,0,0,0,0,0,0,0,0,0,0,0,0,0,0,0,0,0,0,0,0,0,0,0,0,0,0,0,0,0,0,0,0,0,0,0,0,0,0,0,0,0,0,0,0,0,0,0,0,0,0,0],"sum_hessian":[2.4152954E3,1.5094655E3,9.0583E2,7.843198E2,7.251456E2,4.928961E2,4.1293393E2,3.3477234E2,4.4954752E2,9.8845116E1,6.263005E2,2.6374298E2,2.2915314E2,1.1986904E2,2.9306488E2,1.095021E2,2.2527025E2,3.180856E2,1.314619E2,5.5405037E1,4.344008E1,4.4472424E2,1.8157623E2,1.333636E2,1.3037936E2,2.1300052E2,1.6152609E1,4.2937374E1,7.693166E1,2.6362704E2,2.9437834E1,2.7007149E1,8.249495E1,2.0982977E2,1.5440474E1,9.165768E1,2.2642792E2,1.5978037E1,3.9427002E1,3.7945866E1,5.4942136E0,2.5793997E2,1.8678429E2,1.1054523E2,2.2818378E1,1.0850982E2,1.044907E2,3.393315E1,9.00422E0,1.3152798E2,1.3209908E2,1.1332781E1,1.5674369E1,1.5570432E2,5.412546E1,2.5016941E1,6.664074E1,1.9428911E2,3.2138813E1,8.146989E0,7.831048E0,3.8786771E0,3.5548325E1,1.9059158E1,1.8886707E1,8.166059E1,1.7627939E2,1.8363983E2,3.1444476E0,2.8912485E1,8.1632744E1,1.251539E1,1.0302988E1,5.861248E1,4.989734E1,1.6920887E1,1.7012266E1,5.598042E0,3.4061778E0,1.0066095E2,3.0867033E1,1.04613976E2,2.7485102E1,7.4214716E0,3.9113085E0,7.2366447E0,8.437724E0,4.5873665E1,1.0983065E2,4.9054924E1,5.0705385E0,5.346272E0,1.967067E1,3.0578272E1,3.6062466E1,7.45283E1,1.1976082E2,3.6974194E0,4.4495697E0,3.7552476E0,1.5303911E1,7.6596136E0,1.1227095E1,3.8530792E1,4.3129795E1,1.0021609E2,7.606329E1,2.4527033E1,4.385453E0,6.3251488E1,1.8381256E1,9.369454E0,3.1459358E0,4.765412E1,1.095836E1,8.365579E0,4.153176E1,4.1750355E0,1.2745851E1,7.1053367E0,9.90693E0,3.5766136E1,6.489481E1,5.433177E0,2.5433855E1,9.002144E1,1.4592537E1,3.6199555E0,3.8015163E0,3.0926123E0,5.3451114E0,3.6936947E1,8.936721E0,4.4709854E1,6.51208E1,7.0620685E0,4.1992855E1,5.1629977E0,1.4507671E1,1.1021331E1,6.350696E1,5.282946E1,6.693136E1,3.025883E0,4.6337304E0,4.183739E0,7.0433555E0,3.1153648E1,7.377144E0,3.4641614E0,3.9665634E1,6.941555E1,3.0800533E1,3.4279628E0,1.4953294E1,4.2648797E0,5.104575E0,4.105954E1,6.594582E0,4.385167E0,6.5731926E0,4.410183E0,3.955396E0,3.0933365E1,1.0598395E1,5.830883E0,6.9149675E0,4.580813E0,5.326117E0,9.225306E0,2.6540829E1,4.2006256E1,2.2888557E1,3.2423336E1,5.75981E1,7.794106E0,6.7984304E0,4.3044763E0,3.263247E1,4.158381E0,4.77834E0,6.424124E0,3.828573E1,1.0084663E1,5.5036133E1,3.9011743E0,3.160894E0,1.594973E1,2.6043125E1,3.1973708E0,1.1310301E1,6.096469E0,4.924862E0,5.8878094E1,4.628871E0,1.2564726E1,4.0264736E1,1.3436108E1,5.3495247E1,3.0040176E0,4.0393376E0,2.549993E1,5.6537185E0,6.893572E0,3.2772064E1,2.89195E1,4.0496056E1,5.8387284E0,2.4961805E1,3.1838808E0,3.410701E0,2.2581974E1,8.351392E0,3.4208577E0,5.804448E0,7.5691514E0,1.8971678E1,3.5637764E1,6.368492E0,1.1182204E1,1.1706353E1,5.673716E0,2.674962E1,4.1772606E1,1.5825494E1,3.9020026E0,3.8921034E0,3.0920122E0,3.3321118E0,3.4732964E1,3.552766E0,6.7850466E0,3.2996166E0,4.8614967E1,6.4211683E0,7.796053E0,8.153677E0,8.944002E0,1.7099123E1,6.3760858E0,4.934215E0,1.9176615E1,3.9701477E1,2.6560612E1,1.3704123E1,9.965143E0,3.4709644E0,8.363463E0,4.5131783E1,1.5484242E1,1.0015688E1,3.704486E0,3.1890857E0,1.3731283E1,1.9040781E1,2.4817001E1,4.102498E0,2.8871218E1,1.1624837E1,2.0804163E1,4.157642E0,8.361934E0,1.422004E1,4.180649E0,4.170743E0,3.184023E0,4.3851285E0,8.055866E0,1.0915812E1,3.2488216E1,3.1495483E0,5.360075E0,5.8221292E0,4.1709003E0,7.5354533E0,6.795146E0,1.9954473E1,8.034525E0,3.3738083E1,4.1231155E0,1.1702378E1],"tree_param":{"num_deleted":"0","num_feature":"13","num_nodes":"281","size_leaf_vector":"1"}},{"base_weights":[-7.102434E-3,-7.415537E-1,3.6766177E-1,1.0779793E0,-9.077222E-1,7.401333E-1,-4.1732264E-1,5.011304E-1,3.994101E-1,-1.2183026E0,-5.952308E-1,5.726342E-1,4.5557544E-1,-5.440492E-1,4.5878807E-1,2.1901155E-1,3.9444107E-1,-3.8464856E-1,-1.1358886E0,-3.3763883E-1,-8.923808E-1,1.2179273E-1,8.231507E-1,-7.996885E-1,-2.9448006E-1,-3.526911E-1,6.8852663E-1,-3.459595E-1,-7.63546E-1,-6.262681E-1,-9.908997E-2,-1.0818218E0,-6.68208E-1,2.9811636E-1,-1.1703042E-2,4.6155307E-1,4.0189376E-1,-8.623744E-1,-2.1776614E-1,-5.5380446E-1,3.9305714E-1,1.6725108E-2,-2.1960405E-1,2.797105E-1,4.2054884E-2,-1.131546E-1,-2.9606417E-1,-8.5758084E-1,-4.6436659E-1,-5.379092E-1,4.1666326E-1,-1.16029315E-1,-1.1065907E0,-8.3184797E-1,3.7357554E-1,2.4580641E-1,3.4286544E-1,-1.5536739E-1,2.590965E-1,7.757174E-1,2.5329012E-1,-5.0381917E-1,-9.256708E-1,3.136972E-1,-5.825257E-1,-3.1550962E-1,-6.7778856E-1,-4.749089E-1,-9.906188E-1,-1.11068495E-1,-7.659986E-1,-7.027804E-1,-2.1457078E-1,-8.690365E-1,-3.6611077E-1,-2.1717962E-2,-8.8238204E-1,2.9932088E-1,-3.1421965E-1,4.1290787E-3,-4.9256408E-1,6.2540746E-1,1.8717017E-2,5.204537E-1,9.792892E-1,2.7990076E-1,-1.829314E-1,-7.7009517E-1,-1.7356132E-1,-4.874996E-1,-1.0139598E0,-1.7315207E-1,-1.0531797E0,-1.4230722E-1,-1.0879092E0,-7.3892075E-1,-2.2583377E-1,-2.7010104E-1,-8.640331E-3,-5.7703924E-1,-3.454649E-1,-3.6564246E-1,3.1853962E-1,-6.094574E-1,-3.36848E-1,-4.1408265E-1,-9.663521E-1,3.5809126E-1,-4.9851424E-1,-1.0226413E0,3.7881625E-3,-4.860313E-2,-9.3620515E-1,-1.7325763E-1,3.6985812E-1,-2.951006E-1,9.633994E-2,-7.871062E-2,6.2463284E-1,-6.221982E-1,-1.4090233E-1,1.0238539E0,-3.8664274E-2,1.395349E-1,-1.7588863E-1,7.15923E-1,7.784344E-2,1.0685625E0,-1.0823094E-1,3.0124232E-1,-1.4638624E-1,-7.446378E-2,-2.6412362E-1,1.5672465E-1,-5.7256037E-1,2.0952602E-1,-6.518566E-1,-9.766705E-1,-4.1660783E-1,-1.7662056E-1,1.5083389E-1,-3.9602056E-1,-1.4055109E-1,-2.3232551E-1,-4.9073637E-2,-1.2436427E0,-1.3950478E-1,-6.0128E-1,-9.6619254E-1,1.04747154E-1,-3.929118E-1,-2.5300422E-1,-8.303296E-2,-6.5327203E-1,4.896185E-2,2.0727979E-1,-3.7663102E-2,-4.1548514E-1,-3.348332E-1,-7.1703464E-1,2.1949293E-1,-4.0938404E-1,-7.3459E-1,-2.9837966E-1,-3.011757E-1,-3.839161E-1,-7.75637E-1,-3.479759E-1,-7.365511E-1,-2.482533E-1,9.859617E-2,-9.6338615E-2,4.0790755E-1,1.24995805E-1,-6.536523E-2,-2.0192535E-1,-3.0610701E-2,4.5795746E-2,2.6074627E-1,-7.397896E-1,-3.890059E-2,-1.3858901E-1,9.0105854E-2,1.487314E-1,3.5250947E-1,-1.9179808E-1,1.0717108E-1,2.1705045E-1,2.6768832E-2,9.381165E-1,7.279327E-2,-1.5942225E-1,3.603299E-1,3.2924914E-1,1.530225E-1,2.2847426E-1,6.062019E-1,-8.400822E-2,-2.7704614E-1,-3.2297634E-2,-8.03498E-1,-8.295764E-1,-1.036416E0,2.9318073E-1,-2.8260446E-1,-1.7281729E-1,-4.6682248E-1,-6.866473E-1,-1.0491813E-1,-2.8255755E-1,-3.319689E-1,5.3466067E-2,-6.171117E-1,-3.019145E-1,-2.8443055E-2,1.6484453E-1,-1.3217358E-1,-2.7813664E-1,-7.155957E-2,-4.6751104E-2,-2.8888932E-1,5.7330865E-2,-3.0126613E-1,-2.1996103E-1,-3.7524503E-2,-1.0557234E-1,-2.961983E-1,-1.5865229E-1,-2.941768E-1,2.723102E-1,-1.0856957E-1,1.455403E-1,2.1301512E-2,1.6605091E-1,-2.9756365E-2,-8.495355E-2,-2.8959343E-1,1.4028426E-1,-4.504966E-2,1.1627861E-1,3.554774E-1,1.90983E-1,-2.2847769E-1,2.620257E-1,-6.8790026E-2,1.0332116E-1,-1.0284337E-2,6.0624268E-2,2.5587264E-1,-9.993593E-2,-3.0490628E-1,-2.95147E-1,-1.1124501E-1,-1.5478751E-1,-3.1759927E-1,-4.2636562E-2,2.1464354E-1,-3.775677E-2,-2.0627567E-1,-2.6013353E-1,-1.1959105E-1,1.6762841E-1,-1.7952418E-1,2.0545393E-2,-1.5771334E-1,-3.1806454E-1,-6.1067056E-2],"categories":[],"categories_nodes":[],"categories_segments":[],"categories_sizes":[],"default_left":[0,0,0,0,0,0,0,0,0,0,0,0,0,0,0,0,0,0,0,0,0,0,0,0,0,0,0,0,0,0,0,0,0,0,0,0,0,0,0,0,0,0,0,0,0,0,0,0,0,0,0,0,0,0,0,0,0,0,0,0,0,0,0,0,0,0,0,0,0,0,0,0,0,0,0,0,0,0,0,0,0,0,0,0,0,0,0,0,0,0,0,0,0,0,0,0,0,0,0,0,0,0,0,0,0,0,0,0,0,0,0,0,0,0,0,0,0,0,0,0,0,0,0,0,0,0,0,0,0,0,0,0,0,0,0,0,0,0,0,0,0,0,0,0,0,0,0,0,0,0,0,0,0,0,0,0,0,0,0,0,0,0,0,0,0,0,0,0,0,0,0,0,0,0,0,0,0,0,0,0,0,0,0,0,0,0,0,0,0,0,0,0,0,0,0,0,0,0,0,0,0,0,0,0,0,0,0,0,0,0,0,0,0,0,0,0,0,0,0,0,0,0,0,0,0,0,0,0,0,0,0,0,0,0,0,0,0,0,0,0,0,0,0,0,0,0,0,0,0,0,0,0,0,0,0,0,0,0,0,0,0,0,0,0,0,0,0],"id":2,"left_children":[1,3,5,7,9,11,13,15,-1,17,19,21,-1,23,-1,25,-1,-1,27,29,31,33,35,37,39,41,43,-1,45,47,49,51,53,55,57,59,-1,61,63,65,-1,-1,-1,-1,-1,-1,-1,67,69,71,-1,-1,73,75,-1,77,-1,79,81,83,85,87,89,-1,91,93,95,97,99,101,103,105,107,109,-1,-1,111,113,115,117,119,121,123,125,127,129,-1,131,133,135,137,139,141,143,145,147,149,-1,-1,151,-1,153,155,157,-1,159,161,-1,163,165,-1,-1,167,169,171,-1,173,175,177,179,181,183,185,187,-1,189,191,193,-1,195,-1,-1,-1,-1,197,-1,199,201,-1,-1,-1,-1,-1,-1,203,205,-1,207,209,-1,211,-1,-1,213,215,-1,-1,217,-1,219,-1,-1,221,223,-1,-1,225,-1,227,-1,229,-1,231,-1,-1,-1,233,-1,-1,235,-1,-1,-1,-1,-1,-1,-1,-1,237,239,241,-1,243,-1,-1,245,247,-1,-1,-1,249,251,253,255,257,-1,-1,259,261,263,-1,-1,265,-1,-1,-1,-1,-1,-1,-1,-1,-1,-1,-1,-1,-1,-1,-1,-1,-1,-1,-1,-1,-1,-1,-1,-1,-1,-1,-1,-1,-1,-1,-1,-1,-1,-1,-1,-1,-1,-1,-1,-1,-1,-1,-1,-1,-1,-1,-1,-1,-1,-1,-1,-1,-1,-1],"loss_changes":[6.058332E2,2.2582224E2,4.2643372E2,8.495697E0,6.54624E1,1.2805676E2,1.16686E2,4.472038E0,0E0,3.3865356E-1,2.5868416E1,9.198221E1,0E0,2.7942947E1,0E0,4.697913E0,0E0,0E0,1.356659E-1,1.265807E1,5.993271E0,6.8858604E0,9.7229004E1,7.7498474E0,9.438462E1,1.3027904E0,1.1330862E0,0E0,4.875288E-1,2.7254486E0,6.7567154E1,1.0198364E0,2.453529E1,5.2879915E0,6.551484E0,2.0066185E1,0E0,3.9841766E0,1.0977495E1,5.531475E0,0E0,0E0,0E0,0E0,0E0,0E0,0E0,1.217823E0,5.376175E0,4.1006145E0,0E0,0E0,1.1197815E0,2.6124954E0,0E0,3.6888428E0,0E0,5.9167967E0,5.129595E0,5.880478E0,4.4819374E0,2.64682E0,5.9075165E0,0E0,3.3051186E0,8.9988165E0,3.3430977E0,1.9622185E0,9.12014E-1,2.8257103E0,8.504276E-1,3.5854626E0,1.1939451E1,4.021248E0,0E0,0E0,2.380043E0,3.7308025E0,3.104368E0,3.937929E0,1.5226526E0,6.1526823E0,2.734098E0,4.8491793E0,8.434128E0,3.1424036E0,0E0,7.7250385E-1,4.5768104E0,6.23991E0,5.553436E-1,3.3514733E0,6.647301E-1,3.3235993E0,6.228218E-1,2.9058151E0,1.7296528E0,0E0,0E0,4.5740533E-1,0E0,1.9424431E0,1.6994166E0,1.6280599E0,0E0,9.808671E0,1.455656E0,0E0,2.1600084E0,6.087532E-1,0E0,0E0,1.8500481E0,2.7436438E0,2.6558104E0,0E0,8.656087E-1,1.9129238E0,9.0858555E-1,1.3819361E0,1.669781E0,5.731325E-1,2.5178258E0,2.0255113E0,0E0,5.533905E0,3.373601E0,4.6356964E-1,0E0,3.8218632E0,0E0,0E0,0E0,0E0,7.9551244E-1,0E0,2.1071806E0,2.632904E-1,0E0,0E0,0E0,0E0,0E0,0E0,4.141226E0,1.0451059E0,0E0,2.9817142E0,3.5637093E0,0E0,1.8148975E0,0E0,0E0,1.7835326E0,2.0778294E0,0E0,0E0,1.3165951E0,0E0,2.8392096E0,0E0,0E0,4.934311E0,1.3280756E0,0E0,0E0,1.0339117E0,0E0,1.2420635E0,0E0,4.6009936E0,0E0,2.3451395E0,0E0,0E0,0E0,2.6031344E0,0E0,0E0,1.825943E0,0E0,0E0,0E0,0E0,0E0,0E0,0E0,0E0,2.1813354E0,3.4882622E0,5.7305694E0,0E0,4.202241E0,0E0,0E0,4.44965E0,3.1950712E0,0E0,0E0,0E0,1.7274618E0,2.6018066E0,4.596634E-1,3.9776635E0,1.8617425E0,0E0,0E0,2.8410702E0,4.1847944E0,7.3799944E-1,0E0,0E0,1.5773425E0,0E0,0E0,0E0,0E0,0E0,0E0,0E0,0E0,0E0,0E0,0E0,0E0,0E0,0E0,0E0,0E0,0E0,0E0,0E0,0E0,0E0,0E0,0E0,0E0,0E0,0E0,0E0,0E0,0E0,0E0,0E0,0E0,0E0,0E0,0E0,0E0,0E0,0E0,0E0,0E0,0E0,0E0,0E0,0E0,0E0,0E0,0E0,0E0,0E0,0E0,0E0,0E0,0E0,0E0],"parents":[2147483647,0,0,1,1,2,2,3,3,4,4,5,5,6,6,7,7,9,9,10,10,11,11,13,13,15,15,18,18,19,19,20,20,21,21,22,22,23,23,24,24,25,25,26,26,28,28,29,29,30,30,31,31,32,32,33,33,34,34,35,35,37,37,38,38,39,39,47,47,48,48,49,49,52,52,53,53,55,55,57,57,58,58,59,59,60,60,61,61,62,62,64,64,65,65,66,66,67,67,68,68,69,69,70,70,71,71,72,72,73,73,76,76,77,77,78,78,79,79,80,80,81,81,82,82,83,83,84,84,85,85,87,87,88,88,89,89,90,90,91,91,92,92,93,93,94,94,95,95,96,96,99,99,101,101,102,102,103,103,105,105,106,106,108,108,109,109,112,112,113,113,114,114,116,116,117,117,118,118,119,119,120,120,121,121,122,122,123,123,125,125,126,126,127,127,129,129,134,134,136,136,137,137,144,144,145,145,147,147,148,148,150,150,153,153,154,154,157,157,159,159,162,162,163,163,166,166,168,168,170,170,172,172,176,176,179,179,188,188,189,189,190,190,192,192,195,195,196,196,200,200,201,201,202,202,203,203,204,204,207,207,208,208,209,209,212,212],"right_children":[2,4,6,8,10,12,14,16,-1,18,20,22,-1,24,-1,26,-1,-1,28,30,32,34,36,38,40,42,44,-1,46,48,50,52,54,56,58,60,-1,62,64,66,-1,-1,-1,-1,-1,-1,-1,68,70,72,-1,-1,74,76,-1,78,-1,80,82,84,86,88,90,-1,92,94,96,98,100,102,104,106,108,110,-1,-1,112,114,116,118,120,122,124,126,128,130,-1,132,134,136,138,140,142,144,146,148,150,-1,-1,152,-1,154,156,158,-1,160,162,-1,164,166,-1,-1,168,170,172,-1,174,176,178,180,182,184,186,188,-1,190,192,194,-1,196,-1,-1,-1,-1,198,-1,200,202,-1,-1,-1,-1,-1,-1,204,206,-1,208,210,-1,212,-1,-1,214,216,-1,-1,218,-1,220,-1,-1,222,224,-1,-1,226,-1,228,-1,230,-1,232,-1,-1,-1,234,-1,-1,236,-1,-1,-1,-1,-1,-1,-1,-1,238,240,242,-1,244,-1,-1,246,248,-1,-1,-1,250,252,254,256,258,-1,-1,260,262,264,-1,-1,266,-1,-1,-1,-1,-1,-1,-1,-1,-1,-1,-1,-1,-1,-1,-1,-1,-1,-1,-1,-1,-1,-1,-1,-1,-1,-1,-1,-1,-1,-1,-1,-1,-1,-1,-1,-1,-1,-1,-1,-1,-1,-1,-1,-1,-1,-1,-1,-1,-1,-1,-1,-1,-1,-1],"split_conditions":[1E0,1E0,1E0,1E0,1E0,1E0,1E0,1.5197836E5,3.994101E-1,1E0,1E0,1E0,4.5557544E-1,1E0,4.5878807E-1,1E0,3.9444107E-1,-3.8464856E-1,1E1,1E0,1E0,7.869809E4,1E0,1.7804597E5,1E0,8.061847E4,6E0,-3.459595E-1,6.49E2,7.952177E4,1E0,4.79E2,1E0,7.651046E4,1.6270045E5,1E0,4.0189376E-1,2.557137E4,1.8015522E5,1E0,3.9305714E-1,1.6725108E-2,-2.1960405E-1,2.797105E-1,4.2054884E-2,-1.131546E-1,-2.9606417E-1,2.602237E4,1.3798058E5,1.3876775E5,4.1666326E-1,-1.16029315E-1,7.337165E4,5.05E2,3.7357554E-1,7.71E2,3.4286544E-1,1.3011378E5,1E0,1.0615222E5,8.31E2,1.5829325E4,1E0,3.136972E-1,6E0,8E0,9E0,1.163134E4,1E0,6.98E2,7.27E2,6.317677E4,1.4511138E5,6.317677E4,-3.6611077E-1,-2.1717962E-2,1.5829325E4,1E0,7.99E2,1.2655496E5,7.12E2,1.8105198E5,7.57E2,6.984955E4,7.85E2,1.9492112E5,-1.829314E-1,3.08689E3,4E0,5.27E2,1.6733678E5,4E0,1.8912289E5,5.13E2,1.3984405E5,6.84E2,5.92E2,-2.7010104E-1,-8.640331E-3,4.846689E4,-3.454649E-1,7E0,4E0,9E0,-3.36848E-1,5.029409E4,9.060505E4,3.5809126E-1,1.8274267E5,6.39E2,3.7881625E-3,-4.860313E-2,1.051498E5,5.88E2,3.93987E3,-2.951006E-1,3.183006E4,8.2998914E4,6.57E2,8E0,1.4967072E5,6.02E2,1.9152131E5,1E0,-1.7588863E-1,7E0,8.3549234E4,1.943101E5,-1.0823094E-1,7.31E2,-1.4638624E-1,-7.446378E-2,-2.6412362E-1,1.5672465E-1,6.66E2,2.0952602E-1,3E0,1E0,-4.1660783E-1,-1.7662056E-1,1.5083389E-1,-3.9602056E-1,-1.4055109E-1,-2.3232551E-1,6.31E2,3.04613E4,-1.3950478E-1,1.6942869E5,3.669748E4,1.04747154E-1,5.975514E4,-2.5300422E-1,-8.303296E-2,1.0290863E5,5.8E2,2.0727979E-1,-3.7663102E-2,1.4803634E5,-3.348332E-1,3E0,2.1949293E-1,-4.0938404E-1,9.454488E4,3E0,-3.011757E-1,-3.839161E-1,6.95E2,-3.479759E-1,6.77E2,-2.482533E-1,6.24E2,-9.6338615E-2,6.1451918E4,1.24995805E-1,-6.536523E-2,-2.0192535E-1,8.604498E4,4.5795746E-2,2.6074627E-1,3E0,-3.890059E-2,-1.3858901E-1,9.0105854E-2,1.487314E-1,3.5250947E-1,-1.9179808E-1,1.0717108E-1,2.1705045E-1,1.7000873E5,6.19E2,3.04613E4,-1.5942225E-1,6.83E2,3.2924914E-1,1.530225E-1,7E0,4E0,-8.400822E-2,-2.7704614E-1,-3.2297634E-2,1E0,7.06E2,3.517731E4,5.73E2,1.4665211E5,-1.7281729E-1,-4.6682248E-1,6.31E2,5.83E2,7.43E2,-3.319689E-1,5.3466067E-2,1.1546248E5,-3.019145E-1,-2.8443055E-2,1.6484453E-1,-1.3217358E-1,-2.7813664E-1,-7.155957E-2,-4.6751104E-2,-2.8888932E-1,5.7330865E-2,-3.0126613E-1,-2.1996103E-1,-3.7524503E-2,-1.0557234E-1,-2.961983E-1,-1.5865229E-1,-2.941768E-1,2.723102E-1,-1.0856957E-1,1.455403E-1,2.1301512E-2,1.6605091E-1,-2.9756365E-2,-8.495355E-2,-2.8959343E-1,1.4028426E-1,-4.504966E-2,1.1627861E-1,3.554774E-1,1.90983E-1,-2.2847769E-1,2.620257E-1,-6.8790026E-2,1.0332116E-1,-1.0284337E-2,6.0624268E-2,2.5587264E-1,-9.993593E-2,-3.0490628E-1,-2.95147E-1,-1.1124501E-1,-1.5478751E-1,-3.1759927E-1,-4.2636562E-2,2.1464354E-1,-3.775677E-2,-2.0627567E-1,-2.6013353E-1,-1.1959105E-1,1.6762841E-1,-1.7952418E-1,2.0545393E-2,-1.5771334E-1,-3.1806454E-1,-6.1067056E-2],"split_indices":[9,10,4,11,11,10,10,5,0,6,4,6,0,6,0,6,0,0,2,6,6,5,7,5,7,5,2,0,0,5,7,0,7,5,5,3,0,5,5,3,0,0,0,0,0,0,0,5,5,5,0,0,5,0,0,0,0,5,3,5,0,5,11,0,2,2,2,5,3,0,0,5,5,5,0,0,5,11,0,5,0,5,0,5,0,5,0,5,2,0,5,2,5,0,5,0,0,0,0,5,0,2,2,2,0,5,5,0,5,0,0,0,5,0,5,0,5,5,0,2,5,0,5,11,0,2,5,5,0,0,0,0,0,0,0,0,2,3,0,0,0,0,0,0,0,5,0,5,5,0,5,0,0,5,0,0,0,5,0,2,0,0,5,2,0,0,0,0,0,0,0,0,5,0,0,0,5,0,0,2,0,0,0,0,0,0,0,0,5,0,5,0,0,0,0,2,2,0,0,0,3,0,5,0,5,0,0,0,0,0,0,0,5,0,0,0,0,0,0,0,0,0,0,0,0,0,0,0,0,0,0,0,0,0,0,0,0,0,0,0,0,0,0,0,0,0,0,0,0,0,0,0,0,0,0,0,0,0,0,0,0,0,0,0,0,0,0],"split_type":[0,0,0,0,0,0,0,0,0,0,0,0,0,0,0,0,0,0,0,0,0,0,0,0,0,0,0,0,0,0,0,0,0,0,0,0,0,0,0,0,0,0,0,0,0,0,0,0,0,0,0,0,0,0,0,0,0,0,0,0,0,0,0,0,0,0,0,0,0,0,0,0,0,0,0,0,0,0,0,0,0,0,0,0,0,0,0,0,0,0,0,0,0,0,0,0,0,0,0,0,0,0,0,0,0,0,0,0,0,0,0,0,0,0,0,0,0,0,0,0,0,0,0,0,0,0,0,0,0,0,0,0,0,0,0,0,0,0,0,0,0,0,0,0,0,0,0,0,0,0,0,0,0,0,0,0,0,0,0,0,0,0,0,0,0,0,0,0,0,0,0,0,0,0,0,0,0,0,0,0,0,0,0,0,0,0,0,0,0,0,0,0,0,0,0,0,0,0,0,0,0,0,0,0,0,0,0,0,0,0,0,0,0,0,0,0,0,0,0,0,0,0,0,0,0,0,0,0,0,0,0,0,0,0,0,0,0,0,0,0,0,0,0,0,0,0,0,0,0,0,0,0,0,0,0,0,0,0,0,0,0,0,0,0,0,0,0],"sum_hessian":[2.1990698E3,7.4265625E2,1.4564135E3,6.168814E1,6.8096814E2,9.877756E2,4.6863788E2,1.9735968E1,4.1952175E1,3.400745E2,3.4089362E2,8.142989E2,1.7347672E2,4.4067035E2,2.7967539E1,1.5597222E1,4.138746E0,1.8340446E2,1.5667003E2,1.8374547E2,1.5714816E2,2.9138837E2,5.2291046E2,2.1659889E2,2.2407146E2,7.1454363E0,8.451786E0,1.477062E2,8.963825E0,8.240962E1,1.0133584E2,8.30985E1,7.404966E1,1.2502282E2,1.6636555E2,3.0869037E2,2.1422012E2,1.9510033E2,2.1498573E1,1.9346175E2,3.0609701E1,3.8514023E0,3.2940338E0,5.3654857E0,3.0863004E0,4.268418E0,4.695408E0,3.216201E1,5.0247616E1,7.875002E1,2.258582E1,3.4310915E0,7.966741E1,6.873655E1,5.3131156E0,1.1894826E2,6.074567E0,1.0897728E2,5.7388275E1,1.2197164E2,1.8671872E2,3.0618011E1,1.6448232E2,4.3981004E0,1.7100473E1,6.742229E1,1.2603946E2,9.475705E0,2.2686304E1,2.3771986E1,2.647563E1,5.1378475E1,2.7371546E1,2.859755E1,5.1069862E1,4.4401393E0,6.429641E1,1.0899822E2,9.950032E0,7.465343E1,3.4323853E1,2.2103422E1,3.528485E1,5.5693188E1,6.627845E1,1.8178934E2,4.929393E0,1.6213667E1,1.44043455E1,2.8677889E1,1.3580441E2,9.877204E0,7.2232685E0,5.6040127E1,1.1382161E1,1.1046309E2,1.5576371E1,4.3290906E0,5.1466146E0,7.639364E0,1.5046941E1,1.5020276E1,8.75171E0,2.0284681E1,6.190947E0,2.574751E1,2.5630962E1,4.055356E0,2.331619E1,2.4218298E1,4.379251E0,4.748764E0,5.9547646E1,1.3967028E1,9.50312E1,3.2518003E0,6.698232E0,6.6631065E1,8.02236E0,2.4516832E1,9.807021E0,1.3475982E1,8.62744E0,3.0052824E1,5.2320266E0,3.8203796E1,1.7489391E1,6.2328773E1,3.9496763E0,1.7746461E2,4.324723E0,3.3963478E0,1.2817319E1,5.136099E0,9.268247E0,3.0951793E0,2.558271E1,1.26793625E2,9.010794E0,6.1964455E0,3.6807585E0,4.095848E0,3.1274207E0,6.2641077E0,4.977602E1,8.308374E0,3.073786E0,7.106826E1,3.9394833E1,3.2616782E0,1.23146925E1,3.0900483E0,4.5493155E0,8.528217E0,6.4920588E0,4.45774E0,4.29397E0,1.5984914E1,4.299768E0,2.065903E1,5.0884805E0,7.6305637E0,1.8000399E1,1.7841526E1,5.4746647E0,9.818436E0,1.4399863E1,2.5813593E1,3.373405E1,3.499954E0,1.0467073E1,4.5715203E0,9.045968E1,3.155557E0,3.542675E0,4.0156727E0,6.2615395E1,3.2921236E0,4.730236E0,1.9386328E1,5.130505E0,5.6494803E0,4.157541E0,3.9516761E0,9.524306E0,3.1831262E0,5.4443145E0,3.9874744E0,2.606535E1,2.8053114E1,1.0150682E1,5.2611847E0,1.2228207E1,5.834106E1,3.9877133E0,1.4468881E2,3.277579E1,6.0352335E0,3.2330134E0,5.947781E0,1.9634928E1,4.092384E1,8.586979E1,2.0084894E1,2.9691126E1,3.5553393E0,4.7530355E0,6.0312065E1,1.0756191E1,7.224222E0,3.2170612E1,3.5292587E0,8.785434E0,4.733326E0,3.7948914E0,3.149489E0,3.34257E0,3.0183606E0,1.2966554E1,6.79253E0,1.3866501E1,4.126065E0,1.3874334E1,4.163632E0,1.3677894E1,5.684297E0,8.715566E0,1.993427E1,1.379978E1,3.444257E0,7.0228167E0,7.323284E1,1.7226837E1,5.8359337E0,5.677946E1,7.1551147E0,1.2231213E1,6.994688E0,1.9070662E1,9.4793215E0,1.8573793E1,6.1989303E0,3.951752E0,6.2811356E0,5.947071E0,1.0017857E2,4.4510242E1,1.3113762E1,1.9662031E1,6.9162087E0,1.27187195E1,2.9769897E1,1.1153943E1,4.5119286E0,8.135786E1,1.0216858E1,9.868036E0,2.2350933E1,7.3401933E0,3.5842697E1,2.446937E1,4.530748E0,6.2254434E0,3.2502153E0,3.9740067E0,3.4863355E0,5.2990985E0],"tree_param":{"num_deleted":"0","num_feature":"13","num_nodes":"267","size_leaf_vector":"1"}},{"base_weights":[-4.224595E-3,-4.230032E-1,5.291145E-1,-5.475615E-1,1.1963167E0,8.5821426E-1,-1.05111614E-1,-1.0177473E0,-2.6156402E-1,2.7619264E-1,4.0341148E-1,2.7426127E-1,1.000495E0,-2.4169171E-1,3.844738E-1,-1.1179848E0,-8.943465E-1,-8.190904E-3,-6.703978E-1,6.739002E-1,-2.0715144E-1,-2.4042921E-1,3.8043055E-1,8.348133E-1,1.1427566E0,-7.834142E-1,4.915961E-2,-5.99826E-1,-1.132384E0,-9.57537E-1,4.2013386E-1,-4.458443E-1,2.9649472E-1,-8.4921074E-1,-4.3182385E-1,7.022998E-2,3.2168597E-1,-5.024902E-1,7.901253E-1,5.025068E-1,9.7389436E-1,1.1555374E0,3.341809E-2,-1.0227287E0,-5.420392E-1,2.4080344E-1,-6.2407714E-1,-5.441444E-2,-2.8647232E-1,-3.5859793E-1,-1.0096693E0,-1.0602839E0,-8.6114293E-1,-5.672718E-1,4.8156526E-2,-4.1248318E-2,3.6235532E-1,-1.0190812E0,-5.162872E-1,-5.334003E-1,7.802007E-3,-7.9942167E-1,-2.6531193E-1,3.1443787E-1,3.9826465E-1,2.4065156E-2,5.8611995E-1,8.0234736E-1,3.706439E-1,1.0458777E0,3.7229052E-1,-1.4665261E-1,-3.148207E-1,-7.667067E-1,-2.952979E-1,-1.09513134E-1,4.255424E-1,-7.152848E-1,8.925556E-2,-3.3776477E-1,-8.3262134E-1,-3.3928058E-1,-8.6301124E-1,-5.0677244E-2,-8.8576525E-1,-2.6440856E-1,-8.338833E-1,-5.2742016E-1,4.122931E-1,-2.4076366E-1,5.8098465E-1,-3.3320078E-1,-5.525417E-1,-8.5117686E-1,-1.6615678E-1,1.3663891E-1,-6.012991E-1,4.1381118E-1,-3.8027176E-1,-2.7571645E-1,-3.8761216E-1,-4.4156292E-1,3.165148E-1,-7.669226E-2,2.7912349E-1,-1.2334447E-1,2.190151E-1,3.7533385E-1,3.754105E-1,5.377572E-1,3.5896796E-1,7.293259E-2,1.0703819E0,-5.530015E-1,-3.042517E-1,-5.373223E-1,2.2874022E-1,3.4941706E-1,-2.3274742E-1,7.981802E-1,3.2748532E-1,-5.841754E-1,-3.5778394E-1,-4.9784687E-1,-9.6466464E-1,3.0744495E-2,-3.1361485E-1,-9.7091615E-1,-7.5103503E-1,-6.1314803E-1,4.4001095E-2,-9.0343064E-1,1.4110698E-2,-3.0524603E-1,-1.759819E-1,-4.626893E-1,-4.8952702E-2,-6.330306E-2,4.016387E-1,-2.6719716E-1,-1.9400074E-1,-3.3887795E-1,-3.143581E-1,-3.573434E-1,1.5032536E-1,1.8655813E-1,-1.1861896E-1,-7.4884206E-1,-3.7269622E-1,2.6936406E-1,-8.714315E-3,-2.5344032E-1,5.0758743E-3,-1.8031966E-2,-1.8265215E-1,-2.664617E-1,-1.8070064E-1,2.5460362E-1,2.1158898E-1,6.188497E-1,-1.0001471E-1,1.107218E0,4.5439476E-1,-3.166321E-1,-2.839523E-1,-2.5606465E-1,-2.8539255E-1,-8.8877E-2,2.3915471E-1,-4.1960827E-1,-2.9116364E-2,3.3217043E-1,1.104379E0,-8.7060244E-4,5.418914E-1,-4.023461E-2,-6.871407E-1,-3.039972E-1,-1.2382144E-1,-3.181587E-1,-7.8911945E-2,-5.246112E-1,-3.0676067E-1,-8.132796E-2,-7.973593E-1,2.4469001E-2,-7.5472707E-1,-3.5836193E-1,3.8394514E-1,-1.0258179E0,-7.1775043E-1,-2.7922606E-1,1.717064E-1,-3.743733E-1,-9.7618955E-1,2.580865E-1,-1.6610448E-1,1.16722755E-1,-1.9292323E-1,3.4095086E-2,-1.3047473E-1,5.914816E-2,-2.765075E-1,-2.0036842E-1,2.0862368E-1,-4.2457053E-1,-3.4244487E-1,2.4695586E-1,-5.7836664E-1,1.1873225E-1,-1.22128956E-1,6.1662894E-2,-2.3718843E-1,-1.19189434E-1,3.4104228E-1,3.963831E-1,8.3828384E-1,3.7337768E-1,9.383639E-1,2.5622085E-2,2.0319282E-1,-2.94229E-1,3.9853465E-2,-1.5934734E-1,-1.0929669E-2,5.2985135E-2,-8.257281E-1,-1.798876E-1,1.6464286E-1,1.3268109E-2,1.5480025E-1,1.9567893E-1,4.1009748E-1,3.91692E-1,-7.6417303E-1,6.05871E-1,-6.929337E-2,-3.900144E-2,-7.968168E-1,-1.0007318E-1,3.7010647E-2,-5.6921132E-2,-2.3169623E-1,-3.1660044E-1,-1.9048563E-1,-3.385781E-2,-2.8020507E-1,5.0994523E-2,-2.4428861E-1,2.2630976E-1,-5.109337E-2,-9.769898E-2,-3.269397E-1,-1.4011022E-1,-3.4955564E-1,-1.9247644E-1,1.6490372E-1,-1.5509145E-1,5.0912265E-2,-3.7630454E-1,-1.11651294E-1,-6.498369E-2,1.4760262E-1,-2.134304E-1,2.8880658E-2,-1.9715284E-1,9.3280636E-2,1.8513635E-1,-5.3055868E-2,-1.9359642E-1,5.2637562E-2,-7.8385584E-2,2.0467585E-1,-2.3064338E-1,5.2821804E-2,-5.131768E-2,1.0381257E-1,1.3287093E-1,-3.5063613E-2,2.0741713E-1,-2.5192013E-1,1.064007E-1,3.209397E-1,2.265964E-1,3.5629505E-1,-6.46171E-2,1.0620972E-1,1.07257545E-1,-1.255547E-1,-3.1365675E-1,-6.737752E-2,1.5845391E-1,-3.0552493E-2,4.199016E-2,3.172394E-1,-2.673635E-1,-1.05366714E-1,5.447601E-2,2.1104424E-1,-1.6553172E-1,-2.7891737E-1],"categories":[],"categories_nodes":[],"categories_segments":[],"categories_sizes":[],"default_left":[0,0,0,0,0,0,0,0,0,0,0,0,0,0,0,0,0,0,0,0,0,0,0,0,0,0,0,0,0,0,0,0,0,0,0,0,0,0,0,0,0,0,0,0,0,0,0,0,0,0,0,0,0,0,0,0,0,0,0,0,0,0,0,0,0,0,0,0,0,0,0,0,0,0,0,0,0,0,0,0,0,0,0,0,0,0,0,0,0,0,0,0,0,0,0,0,0,0,0,0,0,0,0,0,0,0,0,0,0,0,0,0,0,0,0,0,0,0,0,0,0,0,0,0,0,0,0,0,0,0,0,0,0,0,0,0,0,0,0,0,0,0,0,0,0,0,0,0,0,0,0,0,0,0,0,0,0,0,0,0,0,0,0,0,0,0,0,0,0,0,0,0,0,0,0,0,0,0,0,0,0,0,0,0,0,0,0,0,0,0,0,0,0,0,0,0,0,0,0,0,0,0,0,0,0,0,0,0,0,0,0,0,0,0,0,0,0,0,0,0,0,0,0,0,0,0,0,0,0,0,0,0,0,0,0,0,0,0,0,0,0,0,0,0,0,0,0,0,0,0,0,0,0,0,0,0,0,0,0,0,0,0,0,0,0,0,0,0,0,0,0,0,0,0,0,0,0,0,0,0,0,0,0,0,0,0,0,0,0,0,0,0,0,0,0,0,0,0,0,0,0],"id":3,"left_children":[1,3,5,7,9,11,13,15,17,19,-1,21,23,25,-1,27,29,31,33,35,-1,37,-1,39,41,43,45,47,49,51,-1,53,55,57,59,-1,-1,61,63,65,67,69,-1,71,73,75,77,-1,-1,-1,79,81,83,85,87,89,-1,91,93,95,97,99,101,103,-1,105,107,109,-1,111,-1,-1,-1,113,115,117,119,121,-1,-1,123,-1,125,-1,127,129,131,133,-1,135,137,-1,139,141,143,145,147,149,151,-1,153,155,-1,-1,-1,-1,-1,157,-1,159,-1,-1,161,163,-1,165,167,-1,169,171,173,175,-1,177,179,-1,-1,181,183,185,187,189,-1,-1,191,193,195,197,-1,-1,199,-1,201,203,-1,-1,-1,205,207,-1,-1,-1,209,-1,-1,-1,211,-1,213,215,-1,217,219,221,-1,-1,223,-1,-1,225,227,229,231,233,235,-1,237,-1,239,-1,-1,241,-1,-1,243,-1,245,247,249,251,253,-1,255,257,259,261,263,265,-1,-1,-1,-1,-1,-1,267,269,-1,271,273,-1,-1,275,-1,-1,277,279,281,-1,283,-1,-1,-1,285,-1,-1,287,289,-1,291,-1,-1,-1,-1,293,295,297,-1,-1,299,-1,-1,-1,-1,-1,-1,-1,-1,-1,-1,-1,-1,-1,-1,-1,-1,-1,-1,-1,-1,-1,-1,-1,-1,-1,-1,-1,-1,-1,-1,-1,-1,-1,-1,-1,-1,-1,-1,-1,-1,-1,-1,-1,-1,-1,-1,-1,-1,-1,-1,-1,-1,-1,-1,-1,-1,-1,-1,-1,-1,-1,-1],"loss_changes":[4.4437363E2,2.2544484E2,1.8274359E2,1.3898758E2,1.0540054E1,4.760327E1,5.7099464E1,3.8404846E0,6.68338E1,5.2160606E0,0E0,5.87582E1,9.958405E0,4.317945E1,0E0,9.01947E-1,2.7499374E1,5.3387405E1,1.0164825E1,1.3716059E0,0E0,2.095615E1,0E0,9.56723E0,3.118988E0,4.974289E0,2.325742E1,9.940977E-1,3.7704468E-1,8.315735E-1,0E0,9.88401E0,7.270874E1,7.3955917E0,4.8178864E0,0E0,0E0,4.105239E0,3.627452E0,2.636795E0,5.8442383E0,9.8098755E-1,0E0,1.5536118E-1,2.533001E0,9.115542E0,3.571971E0,0E0,0E0,0E0,6.254959E-1,1.521225E-1,1.4901733E0,1.0436146E1,2.6175457E1,2.1641262E1,0E0,3.3055725E0,5.645259E0,4.0665607E0,3.5004332E0,9.604416E-1,8.745311E0,3.645292E0,0E0,3.6494591E0,7.434124E0,9.249676E0,0E0,1.96035E0,0E0,0E0,0E0,7.8390217E-1,3.33802E0,7.993614E0,3.0985584E0,1.5974426E0,0E0,0E0,1.0201015E0,0E0,4.6086273E0,0E0,3.3394623E-1,6.829971E0,4.314186E0,3.9499216E0,0E0,5.589989E0,2.075904E1,0E0,1.8931341E0,3.378704E0,3.415348E0,2.536522E0,2.4092903E0,2.3516245E0,2.0394912E0,0E0,5.2460194E-1,3.5786934E0,0E0,0E0,0E0,0E0,0E0,3.248702E0,0E0,4.3439617E0,0E0,0E0,1.9757767E0,1.1739774E0,0E0,1.1616907E0,2.8355699E0,0E0,1.7257648E0,2.26729E0,5.244883E0,1.3313704E0,0E0,2.1239436E0,1.2864723E0,0E0,0E0,6.930237E-1,6.798897E-1,2.9878454E0,4.8564916E0,7.33387E-1,0E0,0E0,4.1410155E0,2.4013205E0,2.6270688E0,2.5634482E0,0E0,0E0,7.572118E-1,0E0,3.262684E0,3.7077913E0,0E0,0E0,0E0,5.556862E0,4.3810396E0,0E0,0E0,0E0,1.3219272E0,0E0,0E0,0E0,3.2292333E0,0E0,2.8308377E0,2.300579E0,0E0,1.2071075E0,5.8869517E-1,2.738276E0,0E0,0E0,6.7328376E-1,0E0,0E0,4.60092E0,2.6336033E0,4.4034606E-1,3.8000107E-1,9.416036E0,2.3684473E0,0E0,1.4091682E0,0E0,4.5078373E-1,0E0,0E0,4.8273754E-1,0E0,0E0,8.4825706E-1,0E0,2.7500238E0,4.068908E0,4.066926E0,1.2868652E0,2.711522E0,0E0,3.804975E0,4.252346E0,9.328761E-1,2.3532891E0,7.5959177E0,3.0658455E0,0E0,0E0,0E0,0E0,0E0,0E0,1.361827E0,3.766397E0,0E0,2.1667376E0,3.7657595E0,0E0,0E0,1.1395819E0,0E0,0E0,1.3922157E0,1.1038662E1,2.5601711E0,0E0,1.3842163E0,0E0,0E0,0E0,7.4823934E-1,0E0,0E0,1.8603116E0,1.4604158E0,0E0,1.7881222E0,0E0,0E0,0E0,0E0,3.3300297E0,2.4685049E-1,1.607439E0,0E0,0E0,1.5432644E-1,0E0,0E0,0E0,0E0,0E0,0E0,0E0,0E0,0E0,0E0,0E0,0E0,0E0,0E0,0E0,0E0,0E0,0E0,0E0,0E0,0E0,0E0,0E0,0E0,0E0,0E0,0E0,0E0,0E0,0E0,0E0,0E0,0E0,0E0,0E0,0E0,0E0,0E0,0E0,0E0,0E0,0E0,0E0,0E0,0E0,0E0,0E0,0E0,0E0,0E0,0E0,0E0,0E0,0E0,0E0,0E0,0E0,0E0,0E0,0E0,0E0,0E0],"parents":[2147483647,0,0,1,1,2,2,3,3,4,4,5,5,6,6,7,7,8,8,9,9,11,11,12,12,13,13,15,15,16,16,17,17,18,18,19,19,21,21,23,23,24,24,25,25,26,26,27,27,28,28,29,29,31,31,32,32,33,33,34,34,37,37,38,38,39,39,40,40,41,41,43,43,44,44,45,45,46,46,50,50,51,51,52,52,53,53,54,54,55,55,57,57,58,58,59,59,60,60,61,61,62,62,63,63,65,65,66,66,67,67,69,69,73,73,74,74,75,75,76,76,77,77,80,80,82,82,84,84,85,85,86,86,87,87,89,89,90,90,92,92,93,93,94,94,95,95,96,96,97,97,98,98,100,100,101,101,107,107,109,109,112,112,113,113,115,115,116,116,118,118,119,119,120,120,121,121,123,123,124,124,127,127,128,128,129,129,130,130,131,131,134,134,135,135,136,136,137,137,140,140,142,142,143,143,147,147,148,148,152,152,156,156,158,158,159,159,161,161,162,162,163,163,166,166,169,169,170,170,171,171,172,172,173,173,174,174,176,176,178,178,181,181,184,184,186,186,187,187,188,188,189,189,190,190,192,192,193,193,194,194,195,195,196,196,197,197,204,204,205,205,207,207,208,208,211,211,214,214,215,215,216,216,218,218,222,222,225,225,226,226,228,228,233,233,234,234,235,235,238,238],"right_children":[2,4,6,8,10,12,14,16,18,20,-1,22,24,26,-1,28,30,32,34,36,-1,38,-1,40,42,44,46,48,50,52,-1,54,56,58,60,-1,-1,62,64,66,68,70,-1,72,74,76,78,-1,-1,-1,80,82,84,86,88,90,-1,92,94,96,98,100,102,104,-1,106,108,110,-1,112,-1,-1,-1,114,116,118,120,122,-1,-1,124,-1,126,-1,128,130,132,134,-1,136,138,-1,140,142,144,146,148,150,152,-1,154,156,-1,-1,-1,-1,-1,158,-1,160,-1,-1,162,164,-1,166,168,-1,170,172,174,176,-1,178,180,-1,-1,182,184,186,188,190,-1,-1,192,194,196,198,-1,-1,200,-1,202,204,-1,-1,-1,206,208,-1,-1,-1,210,-1,-1,-1,212,-1,214,216,-1,218,220,222,-1,-1,224,-1,-1,226,228,230,232,234,236,-1,238,-1,240,-1,-1,242,-1,-1,244,-1,246,248,250,252,254,-1,256,258,260,262,264,266,-1,-1,-1,-1,-1,-1,268,270,-1,272,274,-1,-1,276,-1,-1,278,280,282,-1,284,-1,-1,-1,286,-1,-1,288,290,-1,292,-1,-1,-1,-1,294,296,298,-1,-1,300,-1,-1,-1,-1,-1,-1,-1,-1,-1,-1,-1,-1,-1,-1,-1,-1,-1,-1,-1,-1,-1,-1,-1,-1,-1,-1,-1,-1,-1,-1,-1,-1,-1,-1,-1,-1,-1,-1,-1,-1,-1,-1,-1,-1,-1,-1,-1,-1,-1,-1,-1,-1,-1,-1,-1,-1,-1,-1,-1,-1,-1,-1],"split_conditions":[3.7167115E0,1E0,1E0,1E0,1E0,1E0,1E0,1E0,1E0,7E0,4.0341148E-1,1E0,3.8544443E0,1E0,3.844738E-1,1E0,1E0,1E0,3.5575721E0,9.908674E4,-2.0715144E-1,3.913159E0,3.8043055E-1,1E0,4.2195077E0,1E0,4.060443E0,1.0984316E5,3.5575721E0,3.5073965E0,4.2013386E-1,1E0,1E0,1.3240464E5,1.6410473E5,7.022998E-2,3.2168597E-1,1E0,1.2385058E5,1E0,1E0,3.932776E0,3.341809E-2,1.242922E4,1E0,3.8082857E0,1.7572231E5,-5.441444E-2,-2.8647232E-1,-3.5859793E-1,1E0,1.3575727E5,1E0,8.604498E4,1E0,1E0,3.6235532E-1,1E0,1E0,1.3186457E4,1.7965538E5,1.5015681E5,1E0,4.0570908E0,3.9826465E-1,3.8082857E0,1E0,1E0,3.706439E-1,1E0,3.7229052E-1,-1.4665261E-1,-3.148207E-1,7E0,1.3984405E5,3.7376697E0,4.006695E4,4.26268E0,8.925556E-2,-3.3776477E-1,5.640814E4,-3.3928058E-1,1.4511138E5,-5.0677244E-2,1E0,4.118302E4,3.6950426E0,7.651046E4,4.122931E-1,3.5385299E0,1E0,-3.3320078E-1,1E0,1.7804597E5,1E0,6E0,1.0615222E5,3.6367023E0,1.8834305E5,-2.7571645E-1,1.7219838E5,3.7629375E0,3.165148E-1,-7.669226E-2,2.7912349E-1,-1.2334447E-1,2.190151E-1,3.5991227E4,3.754105E-1,3.8501475E0,3.5896796E-1,7.293259E-2,3.9318256E0,1.3798058E5,-3.042517E-1,3.8328207E0,5E0,3.4941706E-1,1.0092959E5,1E0,9.388175E4,2E0,-3.5778394E-1,1.163134E4,1.773558E5,3.0744495E-2,-3.1361485E-1,3.5512478E0,1.5829325E4,2E0,5E0,3.5385299E0,1.4110698E-2,-3.0524603E-1,4E0,1.7804597E5,3.6109178E0,1.5197836E5,4.016387E-1,-2.6719716E-1,4E0,-3.3887795E-1,1.8772873E5,6E0,1.5032536E-1,1.8655813E-1,-1.1861896E-1,6.697768E4,1.1970821E5,2.6936406E-1,-8.714315E-3,-2.5344032E-1,3.6611705E0,-1.8031966E-2,-1.8265215E-1,-2.664617E-1,1.5082222E5,2.5460362E-1,6.1451918E4,3.786378E0,-1.0001471E-1,5E0,9.388175E4,4.3196465E4,-2.839523E-1,-2.5606465E-1,5.975514E4,-8.8877E-2,2.3915471E-1,4.473081E4,3.7425666E0,1.8031674E4,1.952565E4,6E0,4.0430512E0,-4.023461E-2,2.557137E4,-3.039972E-1,3.63816E0,-3.181587E-1,-7.8911945E-2,7.337165E4,-3.0676067E-1,-8.132796E-2,4E0,2.4469001E-2,9.17054E3,6.412903E4,8E0,3.1780539E0,3.6611705E0,-2.7922606E-1,3.448735E0,1.3876775E5,3.448735E0,8.199592E4,3.63816E0,2.557137E4,-1.9292323E-1,3.4095086E-2,-1.3047473E-1,5.914816E-2,-2.765075E-1,-2.0036842E-1,1.5353527E5,5.3218223E4,-3.4244487E-1,1E0,1E0,1.1873225E-1,-1.22128956E-1,8.3549234E4,-2.3718843E-1,-1.19189434E-1,1.8015522E5,3.7841897E0,7.0784984E4,3.7337768E-1,1E0,2.5622085E-2,2.0319282E-1,-2.94229E-1,8.061847E4,-1.5934734E-1,-1.0929669E-2,5E0,1E0,-1.798876E-1,3.7729013E0,1.3268109E-2,1.5480025E-1,1.9567893E-1,4.1009748E-1,1E0,7.0784984E4,1E0,-6.929337E-2,-3.900144E-2,7.478013E4,-1.0007318E-1,3.7010647E-2,-5.6921132E-2,-2.3169623E-1,-3.1660044E-1,-1.9048563E-1,-3.385781E-2,-2.8020507E-1,5.0994523E-2,-2.4428861E-1,2.2630976E-1,-5.109337E-2,-9.769898E-2,-3.269397E-1,-1.4011022E-1,-3.4955564E-1,-1.9247644E-1,1.6490372E-1,-1.5509145E-1,5.0912265E-2,-3.7630454E-1,-1.11651294E-1,-6.498369E-2,1.4760262E-1,-2.134304E-1,2.8880658E-2,-1.9715284E-1,9.3280636E-2,1.8513635E-1,-5.3055868E-2,-1.9359642E-1,5.2637562E-2,-7.8385584E-2,2.0467585E-1,-2.3064338E-1,5.2821804E-2,-5.131768E-2,1.0381257E-1,1.3287093E-1,-3.5063613E-2,2.0741713E-1,-2.5192013E-1,1.064007E-1,3.209397E-1,2.265964E-1,3.5629505E-1,-6.46171E-2,1.0620972E-1,1.07257545E-1,-1.255547E-1,-3.1365675E-1,-6.737752E-2,1.5845391E-1,-3.0552493E-2,4.199016E-2,3.172394E-1,-2.673635E-1,-1.05366714E-1,5.447601E-2,2.1104424E-1,-1.6553172E-1,-2.7891737E-1],"split_indices":[1,8,4,9,11,9,8,11,4,2,0,8,1,9,0,2,12,6,1,5,0,1,0,6,1,11,1,5,1,1,0,12,7,5,5,0,0,11,5,11,12,1,0,5,6,1,5,0,0,0,6,5,2,5,11,12,0,12,6,5,5,5,12,1,0,1,12,7,0,2,0,0,0,2,5,1,5,1,0,0,5,0,5,0,6,5,1,5,0,1,11,0,7,5,12,2,5,1,5,0,5,1,0,0,0,0,0,5,0,1,0,0,1,5,0,1,2,0,5,6,5,2,0,5,5,0,0,1,5,2,2,1,0,0,2,5,1,5,0,0,2,0,5,2,0,0,0,5,5,0,0,0,1,0,0,0,5,0,5,1,0,2,5,5,0,0,5,0,0,5,1,5,5,2,1,0,5,0,1,0,0,5,0,0,2,0,5,5,2,1,1,0,1,5,1,5,1,5,0,0,0,0,0,0,5,5,0,6,12,0,0,5,0,0,5,1,5,0,12,0,0,0,5,0,0,2,12,0,1,0,0,0,0,12,5,11,0,0,5,0,0,0,0,0,0,0,0,0,0,0,0,0,0,0,0,0,0,0,0,0,0,0,0,0,0,0,0,0,0,0,0,0,0,0,0,0,0,0,0,0,0,0,0,0,0,0,0,0,0,0,0,0,0,0,0,0,0,0,0,0,0],"split_type":[0,0,0,0,0,0,0,0,0,0,0,0,0,0,0,0,0,0,0,0,0,0,0,0,0,0,0,0,0,0,0,0,0,0,0,0,0,0,0,0,0,0,0,0,0,0,0,0,0,0,0,0,0,0,0,0,0,0,0,0,0,0,0,0,0,0,0,0,0,0,0,0,0,0,0,0,0,0,0,0,0,0,0,0,0,0,0,0,0,0,0,0,0,0,0,0,0,0,0,0,0,0,0,0,0,0,0,0,0,0,0,0,0,0,0,0,0,0,0,0,0,0,0,0,0,0,0,0,0,0,0,0,0,0,0,0,0,0,0,0,0,0,0,0,0,0,0,0,0,0,0,0,0,0,0,0,0,0,0,0,0,0,0,0,0,0,0,0,0,0,0,0,0,0,0,0,0,0,0,0,0,0,0,0,0,0,0,0,0,0,0,0,0,0,0,0,0,0,0,0,0,0,0,0,0,0,0,0,0,0,0,0,0,0,0,0,0,0,0,0,0,0,0,0,0,0,0,0,0,0,0,0,0,0,0,0,0,0,0,0,0,0,0,0,0,0,0,0,0,0,0,0,0,0,0,0,0,0,0,0,0,0,0,0,0,0,0,0,0,0,0,0,0,0,0,0,0,0,0,0,0,0,0,0,0,0,0,0,0,0,0,0,0,0,0,0,0,0,0,0,0],"sum_hessian":[1.9875734E3,1.1134768E3,8.740966E2,1.03456E3,7.891667E1,5.752476E2,2.9884903E2,3.9031525E2,6.442448E2,1.1356796E1,6.7559875E1,1.13273705E2,4.619739E2,2.728052E2,2.6043844E1,2.1092386E2,1.7939139E2,3.9837408E2,2.4587074E2,8.261024E0,3.0957718E0,7.512567E1,3.814803E1,2.1659254E2,2.4538135E2,9.4710144E1,1.7809505E2,6.856274E0,2.0406758E2,1.7515108E2,4.24031E0,1.6331851E2,2.3505559E2,1.3907411E2,1.0679663E2,4.681016E0,3.5800083E0,6.0303444E1,1.482223E1,6.526586E1,1.5132668E2,2.4225885E2,3.1225016E0,4.593258E1,4.877757E1,1.39132E2,3.896305E1,3.840853E0,3.0154214E0,1.2910611E2,7.496148E1,7.994154E1,9.520953E1,1.3097578E2,3.2342735E1,1.7219566E2,6.2859913E1,9.0722824E1,4.835129E1,8.657906E1,2.0217567E1,2.5725843E1,3.4577602E1,8.703564E0,6.1186666E0,9.900747E0,5.536512E1,9.384839E1,5.7478294E1,1.1188494E2,1.3037392E2,3.1052911E0,4.2827286E1,2.4427792E1,2.4349777E1,4.8178787E1,9.095321E1,3.5657948E1,3.305104E0,4.202036E1,3.2941116E1,5.5376244E1,2.4565298E1,3.540293E0,9.1669235E1,6.225151E1,6.8724266E1,2.2973906E1,9.368832E0,1.3085185E2,4.134381E1,7.468123E1,1.6041594E1,2.3982086E1,2.4369205E1,7.8731217E0,7.870594E1,9.848052E0,1.0369515E1,1.8980227E1,6.7456164E0,3.1092705E1,3.484896E0,4.8239856E0,3.8795786E0,6.383304E0,3.5174427E0,4.323133E1,1.2133786E1,5.757138E1,3.6277008E1,3.6375654E0,1.08247375E2,1.4843756E1,9.584037E0,1.6639538E1,7.710238E0,3.5033212E0,4.467547E1,1.746032E1,7.349289E1,2.9718817E1,5.939129E0,1.0666999E1,2.2274118E1,3.9725072E0,2.059279E1,5.2366604E1,3.9302635E1,2.8751812E1,3.34997E1,6.36719E1,5.052366E0,8.803112E0,1.4170793E1,6.0009052E1,7.0842804E1,2.2840975E1,1.8502838E1,7.492146E0,8.549447E0,1.5064687E1,8.917399E0,1.9302773E1,5.0664344E0,4.0294194E0,3.8437023E0,4.6450504E1,3.2255436E1,4.214218E0,5.6338344E0,4.161091E0,6.2084246E0,3.2322702E0,3.5133464E0,1.057741E1,2.0515295E1,1.0036223E1,3.319511E1,5.2933525E1,4.6378555E0,1.0138695E2,6.86043E0,1.0400859E1,4.442897E0,6.319346E0,1.0320192E1,4.257219E0,3.453019E0,2.2743969E1,2.19315E1,7.7501063E0,9.710214E0,2.9425156E1,4.4067734E1,5.9619102E0,2.3756907E1,3.7666345E0,6.9003644E0,1.9146557E1,3.1275606E0,6.586062E0,4.578054E1,4.062737E0,3.5239895E1,4.9392776E0,2.3812534E1,1.531658E1,1.8183119E1,3.564958E1,2.8022324E1,3.9402373E0,1.0230556E1,5.26781E1,7.3309526E0,1.9232906E1,5.1609898E1,1.803851E1,4.8024645E0,3.9866757E0,4.562772E0,5.20713E0,3.7102695E0,1.2347494E1,6.9552774E0,2.6580063E1,1.9870441E1,7.988032E0,2.4267403E1,3.207664E0,3.0007606E0,1.5324702E1,5.1905923E0,5.4573364E0,2.7737772E1,2.7678705E1,2.5254818E1,5.2391857E1,4.899509E1,3.1045852E0,3.7558446E0,3.021191E0,7.3796678E0,4.623009E0,5.697183E0,1.0913585E1,1.1830383E1,5.029078E0,1.6902422E1,3.5032947E0,4.246812E0,4.8478537E0,4.86236E0,1.9753088E1,9.672069E0,4.089818E1,3.169555E0,4.266939E0,1.9489967E1,3.5437791E0,3.3565855E0,3.5512104E0,3.0348516E0,1.1490208E1,2.374969E1,5.5549564E0,1.8257578E1,7.3854127E0,7.9311676E0,1.0682648E1,7.500471E0,3.4948506E0,3.2154728E1,1.926894E1,8.753384E0,3.0247242E0,7.205831E0,4.177826E1,1.0899838E1,4.2822475E0,3.0487053E0,6.3733835E0,1.2859524E1,1.6208918E1,3.5400978E1,3.1404893E0,1.4898021E1,3.085053E0,3.8702247E0,1.9376106E1,7.2039576E0,3.8696666E0,4.1183653E0,1.9361013E1,4.9063888E0,8.646948E0,6.677755E0,2.2717293E1,5.0204797E0,2.2701517E1,4.977189E0,8.995647E0,1.6259172E1,3.0574898E1,1.8420193E1,4.2452197E0,3.1344478E0,6.7776585E0,4.1359262E0,8.12162E0,3.7087636E0,6.733959E0,1.0168462E1,1.521182E1,4.541269E0,6.5109186E0,3.1611495E0,8.18415E0,3.271403E1,8.665244E0,1.0824724E1],"tree_param":{"num_deleted":"0","num_feature":"13","num_nodes":"301","size_leaf_vector":"1"}},{"base_weights":[3.3552565E-3,-1.2796688E-1,1.1540129E0,-7.530986E-1,1.5126792E-1,7.477226E-1,3.534586E-1,-8.812169E-1,-4.324664E-1,-2.045942E-2,3.8962743E-1,3.389582E-1,3.2830024E-1,-7.60257E-1,-9.876514E-1,-9.6397474E-2,-6.9401395E-1,-4.4500262E-1,2.9995093E-1,1.728981E-1,3.1219074E-4,-7.261908E-1,-3.3288965E-1,-3.3545387E-1,-8.348133E-1,-2.854015E-1,6.857335E-1,-4.851449E-1,-9.177688E-1,-5.5256754E-1,-2.3650032E-2,6.0214597E-1,-2.1804224E-1,-5.6285393E-1,-7.9906917E-1,-3.2423168E-1,-7.3789054E-1,-5.287561E-1,-5.39516E-2,2.9814076E-1,2.4521304E-2,2.1361124E-2,-5.507274E-1,-1.0020392E-1,-2.9200128E-1,-4.1986E-1,-7.346298E-1,-5.6630534E-1,1.6802658E-1,3.1478238E-1,8.2474405E-1,-1.6971532E-1,-2.4847648E-1,7.755916E-3,-6.096452E-1,-8.580829E-1,-6.462583E-1,-8.797424E-1,-5.505568E-1,-6.7218566E-1,2.952467E-2,1.8307142E-1,-2.2774614E-1,-6.6686106E-1,-1.0948067E-1,-6.417124E-1,-1.8845342E-1,-8.353749E-1,-3.5467637E-1,-3.3030513E-1,-8.3817804E-1,-1.411775E-1,4.119823E-1,3.57214E-1,2.480779E-1,6.4366424E-1,9.859743E-1,1.1947317E-1,-2.4274452E-1,-4.8245773E-1,-3.0194086E-1,-7.699824E-1,-3.1976706E-1,-7.8430873E-1,-2.3016451E-1,-5.22659E-2,-2.9085642E-1,-6.3531804E-1,-1.0499598E-2,-7.962965E-1,4.535169E-3,-7.07551E-2,2.2674432E-1,-4.3777588E-1,-3.2193866E-1,1.2333947E-1,-1.6247307E-1,-7.8684586E-1,-3.7770337E-1,-6.4700776E-1,-9.176323E-2,-8.8306534E-1,-6.1660653E-1,1.2439163E-1,-4.8205647E-1,-1.9723128E-1,6.911132E-3,-9.097257E-2,-3.4571457E-1,-2.1810447E-1,1.632325E-2,2.601703E-1,2.700865E-1,1.1635342E-1,6.142359E-1,7.232284E-1,-8.209838E-2,1.0050783E0,9.667141E-2,-2.8077388E-2,2.8899854E-1,-3.1036675E-1,2.3889515E-1,-6.11647E-1,-1.4332053E-1,-8.515156E-1,1.3500032E-1,-8.431733E-2,-8.6836994E-1,1.3310094E-2,-1.8019114E-1,-5.8222596E-2,-7.2375274E-1,-1.5234548E-1,-3.0327603E-1,4.0234345E-1,-4.9860287E-1,-6.420226E-1,2.8285844E-2,-5.8538467E-1,-3.4754026E-1,-2.5336877E-1,-2.8860244E-1,-2.929567E-2,-8.608119E-1,1.7657873E-1,-2.503991E-1,-2.946064E-1,-7.7404463E-1,-3.028301E-1,-2.6339772E-1,-3.7321676E-2,-7.4712104E-1,-1.34609E-1,1.543849E-1,4.6099228E-1,-3.5369375E-1,-8.9309566E-2,6.1509156E-1,3.1605414E-1,-1.6623801E-1,-1.343197E-1,7.329748E-1,3.4738857E-1,6.4300203E-1,-2.4029766E-1,3.2376158E-1,3.400867E-1,8.8354E-1,9.456832E-2,-1.865969E-1,-8.5415386E-2,-4.3676156E-1,2.8578123E-1,-3.4011635E-1,-2.8843984E-1,-1.1857933E-1,1.0166193E-1,-1.3732949E-1,-2.1619867E-1,-2.967366E-1,-2.925827E-1,-1.5089391E-1,-1.1685193E-1,-2.6200736E-1,2.574616E-1,-4.861977E-2,-2.3571166E-1,-6.6408133E-3,-8.767138E-2,-2.7134696E-1,-5.152657E-2,6.448168E-2,-1.1568245E-1,-2.3553401E-1,-1.2512335E-1,1.1316292E-1,-1.5370281E-1,-3.115119E-1,-1.8389863E-1,9.014607E-2,1.3299651E-1,-1.0639891E-1,-2.616957E-1,-1.347236E-1,-1.6686504E-1,8.817278E-2,1.1325258E-1,-1.9332854E-1,-2.8145608E-1,-1.1227773E-1,2.5641942E-1,-1.0315355E-1,-1.763334E-1,6.773834E-2,1.5904003E-1,-1.2540816E-1,2.7921787E-1,-5.168357E-2,4.728348E-3,1.6508389E-1,1.6967288E-1,-7.0717126E-2,1.7679921E-1,2.914667E-1,2.7346084E-2,2.1935764E-1,2.2676015E-1,3.3298078E-1,2.2522189E-1,-1.7350499E-2,-8.5943185E-2,1.0928619E-1,-1.05621755E-1,-2.3753457E-1,-1.8645321E-1,6.436344E-2],"categories":[],"categories_nodes":[],"categories_segments":[],"categories_sizes":[],"default_left":[0,0,0,0,0,0,0,0,0,0,0,0,0,0,0,0,0,0,0,0,0,0,0,0,0,0,0,0,0,0,0,0,0,0,0,0,0,0,0,0,0,0,0,0,0,0,0,0,0,0,0,0,0,0,0,0,0,0,0,0,0,0,0,0,0,0,0,0,0,0,0,0,0,0,0,0,0,0,0,0,0,0,0,0,0,0,0,0,0,0,0,0,0,0,0,0,0,0,0,0,0,0,0,0,0,0,0,0,0,0,0,0,0,0,0,0,0,0,0,0,0,0,0,0,0,0,0,0,0,0,0,0,0,0,0,0,0,0,0,0,0,0,0,0,0,0,0,0,0,0,0,0,0,0,0,0,0,0,0,0,0,0,0,0,0,0,0,0,0,0,0,0,0,0,0,0,0,0,0,0,0,0,0,0,0,0,0,0,0,0,0,0,0,0,0,0,0,0,0,0,0,0,0,0,0,0,0,0,0,0,0,0,0,0,0,0,0,0,0,0,0,0,0,0,0,0,0,0,0,0,0,0,0,0,0,0,0],"id":4,"left_children":[1,3,5,7,9,11,-1,13,15,17,-1,19,-1,21,23,25,27,29,31,-1,-1,33,-1,-1,35,37,39,41,43,45,47,49,51,53,55,-1,57,59,61,-1,-1,-1,63,-1,-1,65,67,69,71,73,75,77,-1,-1,79,81,83,85,87,89,-1,91,-1,93,95,97,99,101,103,105,107,109,111,-1,113,115,117,119,121,123,-1,125,-1,127,129,-1,-1,131,-1,133,-1,135,-1,137,-1,-1,-1,139,141,143,145,147,149,-1,151,-1,153,-1,-1,-1,155,157,-1,159,161,163,165,167,-1,169,-1,171,173,175,177,179,-1,-1,181,-1,-1,-1,183,-1,-1,185,187,189,191,193,-1,195,-1,-1,197,199,201,-1,203,205,-1,207,209,-1,-1,211,213,215,217,219,221,-1,223,-1,225,-1,-1,-1,227,229,-1,231,233,-1,235,-1,-1,-1,-1,-1,-1,-1,-1,-1,-1,-1,-1,-1,-1,-1,-1,-1,-1,-1,-1,-1,-1,-1,-1,-1,-1,-1,-1,-1,-1,-1,-1,-1,-1,-1,-1,-1,-1,-1,-1,-1,-1,-1,-1,-1,-1,-1,-1,-1,-1,-1,-1,-1,-1,-1,-1,-1,-1,-1,-1,-1,-1],"loss_changes":[2.6675714E2,2.7670898E2,8.957825E-1,1.972348E1,2.1602408E2,1.4561777E0,0E0,3.738678E0,1.2387512E1,1.2996185E2,0E0,5.9024274E-1,0E0,1.1885605E0,2.70047E0,9.534286E0,3.2710915E0,1.8610405E1,8.536707E1,0E0,0E0,1.4021378E0,0E0,0E0,1.2968445E0,2.8769164E0,2.2611766E0,1.6172256E0,8.838787E-1,7.5993958E0,8.89583E0,2.1754944E1,5.7974443E0,1.4311275E0,3.9408112E-1,0E0,1.2740707E0,2.317884E0,4.7443333E0,0E0,0E0,0E0,1.9153833E0,0E0,0E0,9.717613E0,4.9346695E0,1.1548519E0,4.832735E0,8.576497E0,5.009308E0,3.9960299E0,0E0,0E0,1.9187984E0,5.127487E-1,1.7355824E0,2.1104012E0,1.3406172E0,1.7607546E0,0E0,3.1684906E0,0E0,2.3708477E0,2.31051E0,3.4357948E0,4.1623335E0,5.747452E-1,3.1767983E0,1.5043098E0,1.2840314E0,2.6563058E0,2.4075265E0,0E0,6.794834E0,5.483513E0,9.4895935E-1,4.8259444E0,4.969282E0,1.5770788E0,0E0,5.8293266E0,0E0,7.979584E-1,1.0157864E0,0E0,0E0,9.0239143E-1,0E0,5.6291294E-1,0E0,3.3909733E0,0E0,2.036756E0,0E0,0E0,0E0,3.9593391E0,2.4066749E0,1.8440504E0,3.4412467E0,1.6509247E-1,1.580677E0,0E0,3.0989957E0,0E0,2.008352E0,0E0,0E0,0E0,4.040377E0,3.6013317E0,0E0,6.03054E0,5.0480375E0,2.2114334E0,9.361914E0,5.1543427E-1,0E0,2.5191898E0,0E0,3.7223215E0,8.204158E0,1.679554E0,1.9423823E0,2.1752548E-1,0E0,0E0,3.1522274E-1,0E0,0E0,0E0,7.547741E-1,0E0,0E0,2.207303E0,1.175894E0,1.093164E0,3.1393966E-1,1.3806353E0,0E0,3.4028041E0,0E0,0E0,1.9124031E-1,3.142243E0,3.8146753E0,0E0,1.0622349E0,1.9414048E0,0E0,3.0030174E0,8.291378E-1,0E0,0E0,3.8232105E0,1.9542409E0,3.3328037E0,3.7171774E0,4.381184E0,2.3970451E0,0E0,5.941925E-1,0E0,3.5249805E0,0E0,0E0,0E0,7.3472214E-1,2.9299026E0,0E0,4.517825E0,2.2593536E0,0E0,1.891541E0,0E0,0E0,0E0,0E0,0E0,0E0,0E0,0E0,0E0,0E0,0E0,0E0,0E0,0E0,0E0,0E0,0E0,0E0,0E0,0E0,0E0,0E0,0E0,0E0,0E0,0E0,0E0,0E0,0E0,0E0,0E0,0E0,0E0,0E0,0E0,0E0,0E0,0E0,0E0,0E0,0E0,0E0,0E0,0E0,0E0,0E0,0E0,0E0,0E0,0E0,0E0,0E0,0E0,0E0,0E0,0E0,0E0,0E0,0E0,0E0,0E0,0E0],"parents":[2147483647,0,0,1,1,2,2,3,3,4,4,5,5,7,7,8,8,9,9,11,11,13,13,14,14,15,15,16,16,17,17,18,18,21,21,24,24,25,25,26,26,27,27,28,28,29,29,30,30,31,31,32,32,33,33,34,34,36,36,37,37,38,38,42,42,45,45,46,46,47,47,48,48,49,49,50,50,51,51,54,54,55,55,56,56,57,57,58,58,59,59,61,61,63,63,64,64,65,65,66,66,67,67,68,68,69,69,70,70,71,71,72,72,74,74,75,75,76,76,77,77,78,78,79,79,81,81,83,83,84,84,87,87,89,89,91,91,93,93,97,97,98,98,99,99,100,100,101,101,102,102,104,104,106,106,110,110,111,111,113,113,114,114,115,115,116,116,117,117,119,119,121,121,122,122,123,123,124,124,125,125,128,128,132,132,135,135,136,136,137,137,138,138,139,139,141,141,144,144,145,145,146,146,148,148,149,149,151,151,152,152,155,155,156,156,157,157,158,158,159,159,160,160,162,162,164,164,168,168,169,169,171,171,172,172,174,174],"right_children":[2,4,6,8,10,12,-1,14,16,18,-1,20,-1,22,24,26,28,30,32,-1,-1,34,-1,-1,36,38,40,42,44,46,48,50,52,54,56,-1,58,60,62,-1,-1,-1,64,-1,-1,66,68,70,72,74,76,78,-1,-1,80,82,84,86,88,90,-1,92,-1,94,96,98,100,102,104,106,108,110,112,-1,114,116,118,120,122,124,-1,126,-1,128,130,-1,-1,132,-1,134,-1,136,-1,138,-1,-1,-1,140,142,144,146,148,150,-1,152,-1,154,-1,-1,-1,156,158,-1,160,162,164,166,168,-1,170,-1,172,174,176,178,180,-1,-1,182,-1,-1,-1,184,-1,-1,186,188,190,192,194,-1,196,-1,-1,198,200,202,-1,204,206,-1,208,210,-1,-1,212,214,216,218,220,222,-1,224,-1,226,-1,-1,-1,228,230,-1,232,234,-1,236,-1,-1,-1,-1,-1,-1,-1,-1,-1,-1,-1,-1,-1,-1,-1,-1,-1,-1,-1,-1,-1,-1,-1,-1,-1,-1,-1,-1,-1,-1,-1,-1,-1,-1,-1,-1,-1,-1,-1,-1,-1,-1,-1,-1,-1,-1,-1,-1,-1,-1,-1,-1,-1,-1,-1,-1,-1,-1,-1,-1,-1,-1],"split_conditions":[1E0,1E0,3.448735E0,3.7425666E0,1E0,1E0,3.534586E-1,1E0,1E0,3.63816E0,3.8962743E-1,3.3672957E0,3.2830024E-1,7.94E2,1E0,3.932776E0,1E0,1E0,1E0,1.728981E-1,3.1219074E-4,1E0,-3.3288965E-1,-3.3545387E-1,5.85E2,1E0,6.91E2,5.11E2,5.37E2,1E0,3.417204E0,3.786378E0,4.189655E0,3.218876E0,6.91E2,-3.2423168E-1,3.5385299E0,7.38E2,7.1E2,2.9814076E-1,2.4521304E-2,2.1361124E-2,7.25E2,-1.0020392E-1,-2.9200128E-1,1E0,1.6336161E5,1E0,1E0,3.6635616E0,3.8942218E0,3.517731E4,-2.4847648E-1,7.755916E-3,1.5782255E5,6.49E2,3.6128726E0,1.952565E4,1.663177E5,1.7507247E5,2.952467E-2,6.59E2,-2.2774614E-1,1.3876775E5,7.59E2,3.5385299E0,3.3050072E0,3.5935066E0,1.6733678E5,9.908674E4,6.13E2,4.9621027E4,3.5935066E0,3.57214E-1,1E0,3.8918202E0,4.189655E0,3.04613E4,1.7653952E5,7.05E2,-3.0194086E-1,6.41E2,-3.1976706E-1,7.03E2,3.6950426E0,-5.22659E-2,-2.9085642E-1,6.22E2,-1.0499598E-2,1E0,4.535169E-3,5.96E2,2.2674432E-1,1.0615222E5,-3.2193866E-1,1.2333947E-1,-1.6247307E-1,1.3011378E5,7.39E2,3.1780539E0,1E0,1E0,7.651046E4,1.2439163E-1,1E0,-1.9723128E-1,6.76E2,-9.097257E-2,-3.4571457E-1,-2.1810447E-1,1.1408373E5,1.2918928E5,2.700865E-1,6.65E2,3.6701076E0,3.8066626E0,1.4898916E5,1E0,9.667141E-2,2.557137E4,2.8899854E-1,1E0,6.27E2,3.4738293E0,7.48E2,1E0,1.3500032E-1,-8.431733E-2,7.61E2,1.3310094E-2,-1.8019114E-1,-5.8222596E-2,5.640814E4,-1.5234548E-1,-3.0327603E-1,1E0,3.8544443E0,5.184727E4,3.913159E0,3.465736E0,-3.4754026E-1,6.87E2,-2.8860244E-1,-2.929567E-2,6.7E2,2.1093182E4,3.4011974E0,-2.946064E-1,1.3317319E5,4.9621027E4,-2.6339772E-1,1E0,1E0,-1.34609E-1,1.543849E-1,6.42E2,6.82E2,5.254524E4,3.5512478E0,5.92E2,1.5829325E4,-1.343197E-1,6.84E2,3.4738857E-1,3.8082857E0,-2.4029766E-1,3.2376158E-1,3.400867E-1,4.0127015E0,5.37E2,-1.865969E-1,1.3984405E5,1.4753006E5,2.8578123E-1,3.913159E0,-2.8843984E-1,-1.1857933E-1,1.0166193E-1,-1.3732949E-1,-2.1619867E-1,-2.967366E-1,-2.925827E-1,-1.5089391E-1,-1.1685193E-1,-2.6200736E-1,2.574616E-1,-4.861977E-2,-2.3571166E-1,-6.6408133E-3,-8.767138E-2,-2.7134696E-1,-5.152657E-2,6.448168E-2,-1.1568245E-1,-2.3553401E-1,-1.2512335E-1,1.1316292E-1,-1.5370281E-1,-3.115119E-1,-1.8389863E-1,9.014607E-2,1.3299651E-1,-1.0639891E-1,-2.616957E-1,-1.347236E-1,-1.6686504E-1,8.817278E-2,1.1325258E-1,-1.9332854E-1,-2.8145608E-1,-1.1227773E-1,2.5641942E-1,-1.0315355E-1,-1.763334E-1,6.773834E-2,1.5904003E-1,-1.2540816E-1,2.7921787E-1,-5.168357E-2,4.728348E-3,1.6508389E-1,1.6967288E-1,-7.0717126E-2,1.7679921E-1,2.914667E-1,2.7346084E-2,2.1935764E-1,2.2676015E-1,3.3298078E-1,2.2522189E-1,-1.7350499E-2,-8.5943185E-2,1.0928619E-1,-1.05621755E-1,-2.3753457E-1,-1.8645321E-1,6.436344E-2],"split_indices":[8,9,1,1,10,9,0,12,4,1,0,1,0,0,6,1,12,12,4,0,0,3,0,0,0,6,0,0,0,4,1,1,1,1,0,0,1,0,0,0,0,0,0,0,0,6,5,4,6,1,1,5,0,0,5,0,1,5,5,5,0,0,0,5,0,1,1,1,5,5,0,5,1,0,12,1,1,5,5,0,0,0,0,0,1,0,0,0,0,12,0,0,0,5,0,0,0,5,0,1,3,6,5,0,3,0,0,0,0,0,5,5,0,0,1,1,5,3,0,5,0,3,0,1,0,4,0,0,0,0,0,0,5,0,0,12,1,5,1,1,0,0,0,0,0,5,1,0,5,5,0,6,6,0,0,0,0,5,1,0,5,0,0,0,1,0,0,0,1,0,0,5,5,0,1,0,0,0,0,0,0,0,0,0,0,0,0,0,0,0,0,0,0,0,0,0,0,0,0,0,0,0,0,0,0,0,0,0,0,0,0,0,0,0,0,0,0,0,0,0,0,0,0,0,0,0,0,0,0,0,0,0,0,0,0,0,0],"split_type":[0,0,0,0,0,0,0,0,0,0,0,0,0,0,0,0,0,0,0,0,0,0,0,0,0,0,0,0,0,0,0,0,0,0,0,0,0,0,0,0,0,0,0,0,0,0,0,0,0,0,0,0,0,0,0,0,0,0,0,0,0,0,0,0,0,0,0,0,0,0,0,0,0,0,0,0,0,0,0,0,0,0,0,0,0,0,0,0,0,0,0,0,0,0,0,0,0,0,0,0,0,0,0,0,0,0,0,0,0,0,0,0,0,0,0,0,0,0,0,0,0,0,0,0,0,0,0,0,0,0,0,0,0,0,0,0,0,0,0,0,0,0,0,0,0,0,0,0,0,0,0,0,0,0,0,0,0,0,0,0,0,0,0,0,0,0,0,0,0,0,0,0,0,0,0,0,0,0,0,0,0,0,0,0,0,0,0,0,0,0,0,0,0,0,0,0,0,0,0,0,0,0,0,0,0,0,0,0,0,0,0,0,0,0,0,0,0,0,0,0,0,0,0,0,0,0,0,0,0,0,0,0,0,0,0,0,0],"sum_hessian":[1.7633776E3,1.5835403E3,1.7983734E2,4.8841446E2,1.0951259E3,1.1895811E1,1.6794153E2,3.4772287E2,1.406916E2,9.534236E2,1.4170221E2,6.366094E0,5.5297165E0,1.66567E2,1.8115588E2,6.21728E1,7.85188E1,4.099077E2,5.435159E2,3.3249626E0,3.0411317E0,1.5457365E2,1.1993342E1,9.430262E1,8.6853264E1,5.058411E1,1.1588688E1,4.224885E1,3.626995E1,3.262975E2,8.361022E1,3.4315707E2,2.0035884E2,5.0381207E1,1.0419245E2,2.1681543E1,6.5171715E1,2.4031746E1,2.6552362E1,7.246976E0,4.3417115E0,4.4460964E0,3.7802753E1,3.7618756E0,3.2508076E1,1.906421E2,1.3565538E2,2.1313925E1,6.2296295E1,1.5084172E2,1.9231535E2,1.8683983E2,1.3519003E1,3.74248E0,4.6638725E1,7.1835236E1,3.2357216E1,3.4984684E1,3.0187035E1,1.9500378E1,4.5313673E0,2.0427086E1,6.125277E0,2.9521544E1,8.281211E0,9.642507E1,9.421703E1,1.0627723E2,2.9378141E1,1.2595381E1,8.718544E0,2.7659845E1,3.4636448E1,9.481725E0,1.4135999E2,9.293315E1,9.93822E1,3.7541847E1,1.4929799E2,3.6996616E1,9.64211E0,5.3752144E1,1.8083088E1,2.3631792E1,8.725424E0,4.2812533E0,3.070343E1,2.5725327E1,4.461708E0,1.6383348E1,3.1170297E0,1.4761563E1,5.665523E0,2.0205614E1,9.31593E0,3.7779078E0,4.5033026E0,6.0942722E1,3.5482353E1,1.5415812E1,7.880122E1,8.4762794E1,2.1514437E1,3.8529613E0,2.552518E1,5.9112716E0,6.6841087E0,3.9532304E0,4.765314E0,5.094496E0,2.2565351E1,2.759126E1,7.045188E0,1.0492958E2,3.6430405E1,8.375475E1,9.178399E0,9.610188E1,3.2803206E0,3.277736E1,4.7644887E0,1.3122903E2,1.8068954E1,2.6209108E1,1.0787507E1,5.066796E1,3.0841827E0,4.004064E0,1.9627728E1,5.51723E0,3.2081933E0,4.828452E0,2.0896875E1,8.425123E0,7.958226E0,7.038384E0,7.7231793E0,1.3786344E1,6.41927E0,4.118888E1,1.9753838E1,3.043887E1,5.0434837E0,4.7269545E0,1.0688857E1,2.9235146E1,4.956608E1,4.023482E1,4.4527977E1,1.0758329E1,1.0756107E1,9.958035E0,1.5567145E1,3.5840533E0,3.1000552E0,1.0137142E1,1.2428208E1,1.4279273E1,1.3311987E1,6.141244E1,4.351714E1,3.385018E0,3.3045387E1,1.0955426E1,7.2799324E1,5.8606715E0,3.3177276E0,4.265785E1,5.3444035E1,2.7864065E1,4.9132915E0,4.7811768E1,8.341727E1,7.8041162E0,1.0264839E1,8.700277E0,1.7508831E1,4.227318E0,6.560189E0,2.9168255E1,2.1499708E1,1.3893608E1,5.7341194E0,7.5754466E0,1.3321428E1,3.605643E0,3.4327407E0,4.414268E0,3.3089116E0,6.8160973E0,6.9702463E0,3.1370385E0,3.2822318E0,2.205713E1,1.9131752E1,2.443397E1,6.0048995E0,4.9195423E0,5.769315E0,3.4301558E0,2.580499E1,6.0513616E0,4.3514713E1,3.2895554E1,1.1632421E1,7.5993924E0,3.1589367E0,6.1404853E0,3.8175504E0,9.290321E0,6.276824E0,6.7654066E0,3.3717358E0,8.842127E0,3.586082E0,4.7380505E0,9.541223E0,9.372675E0,3.939312E0,2.7378557E1,3.4033886E1,3.1545365E0,4.0362606E1,2.279262E1,1.0252768E1,1.0311132E1,6.248819E1,3.6946987E1,1.6497046E1,4.5119395E0,2.3352125E1,3.3290543E1,1.4521224E1,6.895899E1,1.4458274E1,6.7300053E0,3.5348337E0],"tree_param":{"num_deleted":"0","num_feature":"13","num_nodes":"237","size_leaf_vector":"1"}},{"base_weights":[1.707047E-2,-2.7234372E-1,3.9077798E-1,-3.4864205E-1,8.2233846E-1,6.590404E-1,-6.2647685E-2,-7.2231406E-1,-2.1410386E-1,-1.9176513E-1,1.0550867E0,4.920627E-1,9.601513E-1,-1.4321652E-1,9.859963E-1,-4.5607576E-1,-8.704046E-1,-3.2806724E-1,3.8720393E-1,1.1418561E-1,-1.9514191E-1,3.310693E-1,1.7467429E-1,3.858764E-1,3.3651978E-1,9.8921174E-1,-6.611133E-2,-3.2138083E-2,-5.7562697E-1,1.1178342E-1,3.3489007E-1,-3.6444247E-1,-3.9218932E-1,-9.693646E-1,-7.107487E-1,-1.7230509E-1,-5.571532E-1,3.5610002E-1,3.3837554E-1,5.896937E-1,3.045659E-1,-2.6435536E-1,9.526957E-2,-7.807984E-1,-2.7688095E-1,-8.6115885E-1,-3.084357E-1,-8.028881E-2,-9.9272454E-1,-7.854952E-1,-4.3892962E-1,-3.4935126E-1,-1.9498661E-2,-6.6206765E-1,-4.1859788E-1,-3.7022394E-1,4.2491508E-1,4.1455112E-2,2.4175021E-1,1.2727444E-1,-4.0630135E-1,2.3360017E-1,-6.256967E-2,-5.139482E-1,-9.317314E-1,1.5516248E-1,-5.787625E-1,-3.197541E-1,-9.928565E-2,-4.7248942E-4,-4.0410358E-1,-1.3441089E-1,-3.0370435E-1,-6.2013435E-1,-9.488111E-1,-5.363246E-3,-2.1012491E-1,-1.58683E-1,-4.7251478E-1,4.6425322E-1,-6.5381E-2,-9.447062E-1,-5.970045E-1,1.4551753E-1,-4.6410638E-1,-7.6809126E-1,-1.4855678E-1,3.4880868E-1,3.69141E-1,-1.5336594E-1,3.0584002E-1,-7.5323457E-1,-2.1838707E-1,3.4291464E-1,-5.0084557E-2,-1.1840815E-1,1.5065983E-1,-4.2299863E-2,-2.3601824E-1,-3.47865E-1,-5.862993E-1,-1.2221766E-2,-7.821009E-1,-4.3995863E-1,3.4650546E-1,-6.8400985E-1,-1.501841E-1,-2.2279273E-1,-2.827029E-1,-3.2125315E-1,-1.5918727E-1,-5.131111E-1,4.1250575E-1,-1.375878E-1,-5.552508E-1,-3.4189966E-1,2.7507013E-2,-3.2706138E-1,-1.5033574E-1,-8.583981E-1,-5.118087E-1,-2.7257714E-1,-5.66712E-1,-4.124148E-2,-3.2254195E-1,3.6942416E-1,-5.0934094E-1,-3.2005227E-1,4.4702685E-1,2.4477123E-1,3.1984072E-2,-2.9480222E-1,-8.110641E-3,1.6000758E-1,-5.283374E-1,-2.1972638E-1,4.8538283E-1,1.1995323E-1,-1.9643761E-1,-5.4084033E-2,-2.330832E-1,-5.0586794E-2,-2.8646523E-1,-1.8272331E-2,-3.2180697E-1,-2.8631586E-1,-1.3816276E-1,-2.8052694E-1,-3.5636392E-1,3.8995007E-1,-4.873412E-1,-2.4714743E-1,6.282037E-2,-3.336613E-1,-3.3690074E-1,-6.766625E-2,5.632384E-1,-7.897901E-1,3.0682096E-1,-5.008991E-1,-3.3296365E-1,-5.7114046E-2,-5.996844E-1,3.8359663E-1,-2.637711E-2,-2.9042298E-1,-5.146876E-1,1.2842043E-1,-5.587869E-1,2.4852093E-1,-4.0555677E-1,-3.1288764E-1,-4.2335972E-1,2.2612816E-1,-2.319221E-2,-2.2339351E-1,-3.6296576E-2,-7.018821E-1,4.753696E-1,3.5914788E-1,3.5569996E-1,-1.6218974E-1,3.200286E-1,5.093937E-1,-1.4504652E-1,-3.1181574E-1,-3.2945055E-1,1.0258075E-1,-2.3092544E-1,1.24852166E-1,6.2996095E-1,6.2753E-1,-2.9670212E-1,-1.3226247E-1,1.8174562E-1,7.4961856E-2,-1.6486768E-1,2.7441584E-2,-3.3336872E-1,-2.4420757E-2,3.1136253E-1,-2.3730269E-1,-4.2814016E-2,-1.6132587E-1,1.5539795E-1,9.649799E-2,-1.5223396E-1,1.0741285E-2,2.4822614E-1,-7.1063906E-2,-3.6191505E-1,-3.9917625E-2,2.4298948E-1,-1.7149201E-1,2.7763905E-2,-1.6517991E-1,3.75911E-1,-8.4097065E-2,-2.528347E-1,1.4554649E-2,-1.4458512E-1,-1.43562E-4,-2.9307288E-1,-1.3643672E-1,-2.3698242E-1,1.9822942E-1,-4.948229E-2,-1.919883E-1,-6.1954036E-2,-2.8474478E-2,-1.7540927E-1,-2.8114435E-1,-3.9991632E-2,2.7292E-1,-2.075266E-2,-7.4536055E-2,1.3513122E-1,1.434376E-1,1.4757282E-2,-7.4685393E-3,2.265786E-1,-1.915078E-1,8.846525E-3,-5.318526E-2,2.3412244E-1,6.53938E-2,2.4752246E-1,-8.27262E-3,3.2814458E-1,-1.9963937E-1,6.69369E-2,3.425936E-2,-1.0079741E-1],"categories":[],"categories_nodes":[],"categories_segments":[],"categories_sizes":[],"default_left":[0,0,0,0,0,0,0,0,0,0,0,0,0,0,0,0,0,0,0,0,0,0,0,0,0,0,0,0,0,0,0,0,0,0,0,0,0,0,0,0,0,0,0,0,0,0,0,0,0,0,0,0,0,0,0,0,0,0,0,0,0,0,0,0,0,0,0,0,0,0,0,0,0,0,0,0,0,0,0,0,0,0,0,0,0,0,0,0,0,0,0,0,0,0,0,0,0,0,0,0,0,0,0,0,0,0,0,0,0,0,0,0,0,0,0,0,0,0,0,0,0,0,0,0,0,0,0,0,0,0,0,0,0,0,0,0,0,0,0,0,0,0,0,0,0,0,0,0,0,0,0,0,0,0,0,0,0,0,0,0,0,0,0,0,0,0,0,0,0,0,0,0,0,0,0,0,0,0,0,0,0,0,0,0,0,0,0,0,0,0,0,0,0,0,0,0,0,0,0,0,0,0,0,0,0,0,0,0,0,0,0,0,0,0,0,0,0,0,0,0,0,0,0,0,0,0,0,0,0,0,0,0,0,0,0,0,0,0,0,0,0,0,0,0,0,0,0,0,0,0,0,0,0],"id":5,"left_children":[1,3,5,7,9,11,13,15,17,19,21,23,25,27,29,31,33,35,-1,-1,-1,-1,-1,37,-1,39,-1,41,43,-1,-1,-1,45,47,49,51,53,-1,55,57,-1,59,61,63,65,67,69,-1,71,73,75,77,79,81,83,85,87,-1,-1,89,91,93,95,97,99,-1,101,-1,-1,103,105,-1,-1,107,109,-1,-1,111,113,-1,115,117,119,-1,121,123,125,-1,127,-1,129,131,133,135,137,139,-1,-1,-1,-1,141,-1,143,145,-1,147,149,151,-1,-1,-1,153,155,157,159,161,163,-1,-1,165,167,169,171,-1,-1,173,175,177,179,-1,181,-1,-1,183,185,187,189,191,-1,193,-1,-1,-1,-1,-1,-1,195,197,-1,199,201,-1,203,205,-1,-1,207,209,211,213,-1,215,217,-1,219,-1,221,-1,223,225,227,-1,229,-1,-1,-1,-1,231,233,-1,235,-1,237,239,-1,241,-1,-1,-1,243,245,247,249,251,-1,-1,-1,-1,-1,-1,-1,-1,-1,-1,-1,-1,-1,-1,-1,-1,-1,-1,-1,-1,-1,-1,-1,-1,-1,-1,-1,-1,-1,-1,-1,-1,-1,-1,-1,-1,-1,-1,-1,-1,-1,-1,-1,-1,-1,-1,-1,-1,-1,-1,-1,-1,-1,-1,-1,-1,-1,-1,-1],"loss_changes":[1.6955214E2,7.407888E1,8.326212E1,4.1402992E1,1.3860165E1,2.1144562E1,2.1705166E1,8.214516E0,1.0489923E2,3.305771E0,4.3976593E-1,1.8196571E1,5.443512E0,1.1407872E1,1.0496998E0,3.4094658E0,1.5110626E0,2.0140846E1,0E0,0E0,0E0,0E0,0E0,8.729111E0,0E0,9.4789124E-1,0E0,5.6563916E0,2.760353E0,0E0,0E0,0E0,2.6966333E0,1.0984268E0,8.139591E-1,9.165483E0,3.053032E0,0E0,1.4133188E1,1.0092595E0,0E0,3.8149247E0,2.7140908E0,6.5855217E-1,5.4105372E0,8.269377E-1,1.9309874E0,0E0,4.032898E-1,5.854168E-1,1.5912917E0,3.6119843E0,1.3261123E1,1.8018456E0,4.396639E0,2.120659E0,7.947548E0,0E0,0E0,2.2964184E0,3.09031E0,2.0670335E0,1.9054133E0,1.1538658E0,6.428461E-1,0E0,1.709847E0,0E0,0E0,8.906096E0,3.451703E0,0E0,0E0,2.9246397E0,4.5145035E-1,0E0,0E0,1.2990342E1,2.5528183E0,0E0,4.6016426E0,8.966274E-1,1.9501114E0,0E0,1.7534409E0,1.5612755E0,3.460922E0,0E0,1.0381062E1,0E0,2.110211E0,2.8280258E0,4.047864E0,3.9416246E0,2.0588093E0,2.2486892E0,0E0,0E0,0E0,0E0,1.1787078E0,0E0,2.3444948E0,1.8405554E0,0E0,4.4457407E0,5.1987686E0,2.1586158E0,0E0,0E0,0E0,3.9371386E0,2.5049324E0,6.075373E0,1.7277527E0,3.2716446E0,9.11868E0,0E0,0E0,4.4033623E-1,3.9215336E0,2.5811305E0,3.8111458E0,0E0,0E0,1.3922714E0,8.9162064E-1,6.392323E0,1.1342342E1,0E0,1.9860061E0,0E0,0E0,3.8399081E0,1.9782252E0,3.462157E0,1.9274988E0,3.5439818E0,0E0,2.6771874E0,0E0,0E0,0E0,0E0,0E0,0E0,1.6022056E0,4.5400605E0,0E0,3.4822814E0,1.7057796E0,0E0,2.8068635E0,3.7919974E0,0E0,0E0,2.7969384E0,1.6572514E0,2.9162002E0,3.0259037E0,0E0,1.523734E1,1.5905867E0,0E0,4.4647713E0,0E0,1.938566E0,0E0,1.5605869E0,1.4550445E0,1.2160516E0,0E0,2.570858E0,0E0,0E0,0E0,0E0,1.7320471E0,1.7343268E0,0E0,8.958227E0,0E0,3.165148E-1,1.4436128E0,0E0,1.6935248E0,0E0,0E0,0E0,2.5673513E0,2.0085E0,2.314646E0,1.9501085E0,2.33949E0,0E0,0E0,0E0,0E0,0E0,0E0,0E0,0E0,0E0,0E0,0E0,0E0,0E0,0E0,0E0,0E0,0E0,0E0,0E0,0E0,0E0,0E0,0E0,0E0,0E0,0E0,0E0,0E0,0E0,0E0,0E0,0E0,0E0,0E0,0E0,0E0,0E0,0E0,0E0,0E0,0E0,0E0,0E0,0E0,0E0,0E0,0E0,0E0,0E0,0E0,0E0,0E0,0E0,0E0,0E0,0E0,0E0,0E0,0E0],"parents":[2147483647,0,0,1,1,2,2,3,3,4,4,5,5,6,6,7,7,8,8,9,9,10,10,11,11,12,12,13,13,14,14,15,15,16,16,17,17,23,23,25,25,27,27,28,28,32,32,33,33,34,34,35,35,36,36,38,38,39,39,41,41,42,42,43,43,44,44,45,45,46,46,48,48,49,49,50,50,51,51,52,52,53,53,54,54,55,55,56,56,59,59,60,60,61,61,62,62,63,63,64,64,66,66,69,69,70,70,73,73,74,74,77,77,78,78,80,80,81,81,82,82,84,84,85,85,86,86,88,88,90,90,91,91,92,92,93,93,94,94,95,95,100,100,102,102,103,103,105,105,106,106,107,107,111,111,112,112,113,113,114,114,115,115,116,116,119,119,120,120,121,121,122,122,125,125,126,126,127,127,128,128,130,130,133,133,134,134,135,135,136,136,137,137,139,139,146,146,147,147,149,149,150,150,152,152,153,153,156,156,157,157,158,158,159,159,161,161,162,162,164,164,166,166,168,168,169,169,170,170,172,172,177,177,178,178,180,180,182,182,183,183,185,185,189,189,190,190,191,191,192,192,193,193],"right_children":[2,4,6,8,10,12,14,16,18,20,22,24,26,28,30,32,34,36,-1,-1,-1,-1,-1,38,-1,40,-1,42,44,-1,-1,-1,46,48,50,52,54,-1,56,58,-1,60,62,64,66,68,70,-1,72,74,76,78,80,82,84,86,88,-1,-1,90,92,94,96,98,100,-1,102,-1,-1,104,106,-1,-1,108,110,-1,-1,112,114,-1,116,118,120,-1,122,124,126,-1,128,-1,130,132,134,136,138,140,-1,-1,-1,-1,142,-1,144,146,-1,148,150,152,-1,-1,-1,154,156,158,160,162,164,-1,-1,166,168,170,172,-1,-1,174,176,178,180,-1,182,-1,-1,184,186,188,190,192,-1,194,-1,-1,-1,-1,-1,-1,196,198,-1,200,202,-1,204,206,-1,-1,208,210,212,214,-1,216,218,-1,220,-1,222,-1,224,226,228,-1,230,-1,-1,-1,-1,232,234,-1,236,-1,238,240,-1,242,-1,-1,-1,244,246,248,250,252,-1,-1,-1,-1,-1,-1,-1,-1,-1,-1,-1,-1,-1,-1,-1,-1,-1,-1,-1,-1,-1,-1,-1,-1,-1,-1,-1,-1,-1,-1,-1,-1,-1,-1,-1,-1,-1,-1,-1,-1,-1,-1,-1,-1,-1,-1,-1,-1,-1,-1,-1,-1,-1,-1,-1,-1,-1,-1,-1],"split_conditions":[3.7167115E0,1E0,1E0,1E0,1E0,3.8942218E0,1E0,1E0,1E0,3E0,1.7572231E5,1E0,4.2195077E0,4.0775375E0,1E0,1.242922E4,3.5575721E0,1E0,3.8720393E-1,1.1418561E-1,-1.9514191E-1,3.310693E-1,1.7467429E-1,3.7376697E0,3.3651978E-1,5.07E2,-6.611133E-2,3.8082857E0,1.1077601E5,1.1178342E-1,3.3489007E-1,-3.6444247E-1,3.3384812E0,1E0,8E0,3.5385299E0,3.5575721E0,3.5610002E-1,3.7425666E0,8.954592E4,3.045659E-1,5.411338E4,3.9318256E0,4.1431346E0,1.2762336E5,7E0,5.794288E4,-8.028881E-2,4.79E2,1E0,9E0,7.0784984E4,3.5553482E0,2E0,4.79E2,5.708897E4,3.7612002E0,4.1455112E-2,2.4175021E-1,1E0,6.08E2,7E0,1.8772873E5,4.426528E4,6E0,1.5516248E-1,4.120685E0,-3.197541E-1,-9.928565E-2,4.846689E4,1.2145788E5,-1.3441089E-1,-3.0370435E-1,4E0,6E0,-5.363246E-3,-2.1012491E-1,5.029409E4,5.64E2,4.6425322E-1,3.5935066E0,3.4738293E0,4.242988E4,1.4551753E-1,7.478013E4,3E0,1.0142019E5,3.4880868E-1,3.7629375E0,-1.5336594E-1,5.98E2,1.5782255E5,6.81E2,1E0,1.663177E5,1.6733678E5,1.5065983E-1,-4.2299863E-2,-2.3601824E-1,-3.47865E-1,6.66E2,-1.2221766E-2,6.09E2,5.84E2,3.4650546E-1,6.51E2,1.4665211E5,6.06E2,-2.827029E-1,-3.2125315E-1,-1.5918727E-1,3.768831E4,5.86E2,5.18E2,1.9084261E5,3.583519E0,3.6109178E0,-3.2706138E-1,-1.5033574E-1,3.5073965E0,4.787763E4,5.91E2,1.0615222E5,-4.124148E-2,-3.2254195E-1,6.47E2,6E0,8E0,3.7841897E0,2.4477123E-1,6.59E2,-2.9480222E-1,-8.110641E-3,1E0,1.7411894E5,1E0,6.02E2,6.7E2,-1.9643761E-1,1.4967072E5,-2.330832E-1,-5.0586794E-2,-2.8646523E-1,-1.8272331E-2,-3.2180697E-1,-2.8631586E-1,7E0,1.0041448E5,-3.5636392E-1,6.79E2,1.6942869E5,-2.4714743E-1,2E0,5.83E2,-3.3690074E-1,-6.766625E-2,4E0,6E0,7E0,1.773558E5,-3.3296365E-1,3.5575721E0,5E0,3.8359663E-1,3.713572E0,-2.9042298E-1,6E0,1.2842043E-1,1E0,4E0,6.82E2,-3.1288764E-1,3.6367023E0,2.2612816E-1,-2.319221E-2,-2.2339351E-1,-3.6296576E-2,1E0,6.46E2,3.5914788E-1,3.786378E0,-1.6218974E-1,7.43E2,4E0,-1.4504652E-1,7.31E2,-3.2945055E-1,1.0258075E-1,-2.3092544E-1,1.3654211E5,3E0,6.06E2,7.478013E4,6.546466E4,1.8174562E-1,7.4961856E-2,-1.6486768E-1,2.7441584E-2,-3.3336872E-1,-2.4420757E-2,3.1136253E-1,-2.3730269E-1,-4.2814016E-2,-1.6132587E-1,1.5539795E-1,9.649799E-2,-1.5223396E-1,1.0741285E-2,2.4822614E-1,-7.1063906E-2,-3.6191505E-1,-3.9917625E-2,2.4298948E-1,-1.7149201E-1,2.7763905E-2,-1.6517991E-1,3.75911E-1,-8.4097065E-2,-2.528347E-1,1.4554649E-2,-1.4458512E-1,-1.43562E-4,-2.9307288E-1,-1.3643672E-1,-2.3698242E-1,1.9822942E-1,-4.948229E-2,-1.919883E-1,-6.1954036E-2,-2.8474478E-2,-1.7540927E-1,-2.8114435E-1,-3.9991632E-2,2.7292E-1,-2.075266E-2,-7.4536055E-2,1.3513122E-1,1.434376E-1,1.4757282E-2,-7.4685393E-3,2.265786E-1,-1.915078E-1,8.846525E-3,-5.318526E-2,2.3412244E-1,6.53938E-2,2.4752246E-1,-8.27262E-3,3.2814458E-1,-1.9963937E-1,6.69369E-2,3.425936E-2,-1.0079741E-1],"split_indices":[1,8,4,11,11,1,8,10,12,2,5,8,1,1,11,5,1,4,0,0,0,0,0,1,0,0,0,1,5,0,0,0,1,2,2,1,1,0,1,5,0,5,1,1,5,2,5,0,0,4,2,5,1,2,0,5,1,0,0,11,0,2,5,5,2,0,1,0,0,5,5,0,0,2,2,0,0,5,0,0,1,1,5,0,5,2,5,0,1,0,0,5,0,11,5,5,0,0,0,0,0,0,0,0,0,0,5,0,0,0,0,5,0,0,5,1,1,0,0,1,5,0,5,0,0,0,2,2,1,0,0,0,0,10,5,10,0,0,0,5,0,0,0,0,0,0,2,5,0,0,5,0,2,0,0,0,2,2,2,5,0,1,2,0,1,0,2,0,10,2,0,0,1,0,0,0,0,12,0,0,1,0,0,2,0,0,0,0,0,5,2,0,5,5,0,0,0,0,0,0,0,0,0,0,0,0,0,0,0,0,0,0,0,0,0,0,0,0,0,0,0,0,0,0,0,0,0,0,0,0,0,0,0,0,0,0,0,0,0,0,0,0,0,0,0,0,0,0,0,0,0,0,0],"split_type":[0,0,0,0,0,0,0,0,0,0,0,0,0,0,0,0,0,0,0,0,0,0,0,0,0,0,0,0,0,0,0,0,0,0,0,0,0,0,0,0,0,0,0,0,0,0,0,0,0,0,0,0,0,0,0,0,0,0,0,0,0,0,0,0,0,0,0,0,0,0,0,0,0,0,0,0,0,0,0,0,0,0,0,0,0,0,0,0,0,0,0,0,0,0,0,0,0,0,0,0,0,0,0,0,0,0,0,0,0,0,0,0,0,0,0,0,0,0,0,0,0,0,0,0,0,0,0,0,0,0,0,0,0,0,0,0,0,0,0,0,0,0,0,0,0,0,0,0,0,0,0,0,0,0,0,0,0,0,0,0,0,0,0,0,0,0,0,0,0,0,0,0,0,0,0,0,0,0,0,0,0,0,0,0,0,0,0,0,0,0,0,0,0,0,0,0,0,0,0,0,0,0,0,0,0,0,0,0,0,0,0,0,0,0,0,0,0,0,0,0,0,0,0,0,0,0,0,0,0,0,0,0,0,0,0,0,0,0,0,0,0,0,0,0,0,0,0,0,0,0,0,0,0],"sum_hessian":[1.565675E3,8.8250146E2,6.831735E2,8.2563684E2,5.686461E1,4.289427E2,2.5423087E2,2.174138E2,6.082231E2,1.0647716E1,4.6216892E1,2.7762372E2,1.5131894E2,2.3689342E2,1.7337439E1,7.9166794E1,1.3824701E2,5.6612976E2,4.2093327E1,4.8126473E0,5.8350687E0,4.0709293E1,5.507599E0,2.3894186E2,3.868187E1,1.4784164E2,3.4772995E0,1.8933182E2,4.7561604E1,3.7139885E0,1.3623451E1,4.749176E0,7.441762E1,8.2215515E1,5.6031494E1,3.3803928E2,2.2809045E2,1.2031756E1,2.2691011E2,1.0482921E1,1.3735872E2,6.6695526E1,1.2263629E2,2.7240154E1,2.0321451E1,9.869934E0,6.454768E1,3.049995E0,7.916552E1,4.246455E1,1.3566944E1,1.5600313E2,1.8203616E2,1.2765297E2,1.00437485E2,2.4339157E1,2.0257095E2,3.9243684E0,6.5585523E0,1.7770359E1,4.8925167E1,6.510136E1,5.7534935E1,1.1432533E1,1.5807621E1,5.4010053E0,1.4920446E1,6.392023E0,3.477911E0,1.5537159E1,4.901052E1,3.5816238E0,7.558389E1,2.3483822E1,1.8980728E1,5.606919E0,7.9600253E0,6.2121635E1,9.3881485E1,4.2474127E0,1.7778874E2,2.1357004E1,1.0629597E2,4.3524704E0,9.6085014E1,7.826469E0,1.6512688E1,1.2842575E1,1.8972838E2,3.4765143E0,1.4293845E1,1.613248E1,3.2792686E1,4.684241E1,1.8258944E1,5.3077522E1,4.4574103E0,5.470317E0,5.9622164E0,8.105253E0,7.702368E0,4.4215636E0,1.0498882E1,1.1704606E1,3.8325531E0,2.2506662E1,2.6503859E1,1.1273278E1,1.2210545E1,1.3484951E1,5.4957776E0,3.8397373E1,2.3724262E1,1.9124762E1,7.475673E1,4.403123E1,1.337575E2,1.4984369E1,6.3726354E0,2.3897928E1,8.239804E1,3.479372E1,6.1291294E1,3.0369225E0,4.7895465E0,6.769586E0,9.743101E0,1.894848E1,1.7077989E2,4.3019776E0,9.991868E0,1.199085E1,4.1416306E0,1.4983833E1,1.7808853E1,9.354999E0,3.7487415E1,1.4877244E1,3.3817003E0,4.9340225E1,3.7373006E0,4.2939696E0,3.4083982E0,3.362736E0,7.1361465E0,3.528215E0,8.176391E0,1.3362857E1,9.1438055E0,1.0125681E1,1.6378178E1,3.024417E0,8.248861E0,3.0863432E1,7.5339413E0,4.438681E0,1.928558E1,7.4354806E0,1.16892805E1,6.981792E1,4.938806E0,2.1500397E1,2.2530834E1,4.58428E0,1.2917323E2,1.6739716E1,7.158213E0,3.5363102E0,7.886173E1,6.897216E0,2.7896505E1,1.2728625E1,4.8562668E1,3.2694783E0,3.5001075E0,5.495756E0,4.247345E0,1.2882187E1,6.0662947E0,1.722122E1,1.5355867E2,3.0505798E0,6.941288E0,9.846223E0,5.1376104E0,1.4026383E1,3.7824695E0,4.815718E0,4.5392804E0,1.1263495E1,2.6223919E1,6.478685E0,8.398559E0,4.482893E1,4.5112944E0,4.4097066E0,3.7666843E0,9.844329E0,3.518528E0,6.3676825E0,3.7579985E0,8.01794E0,8.360238E0,3.478182E0,4.7706795E0,6.290789E0,2.4572643E1,6.8150334E0,1.2470547E1,3.869036E0,3.5664446E0,6.629183E0,5.060098E0,6.2414604E1,7.4033175E0,1.6038883E1,5.4615154E0,1.06685505E1,1.1862285E1,1.1170357E2,1.7469667E1,3.8624167E0,3.2957966E0,5.6437565E1,2.2424164E1,3.1541905E0,3.743025E0,1.1793112E1,1.6103394E1,1.6520082E1,3.2042587E1,8.653362E0,4.2288237E0,3.001488E0,3.064807E0,2.0595545E1,1.3296312E2,3.8996053E0,3.0416827E0,3.386301E0,6.459922E0,6.7234E0,7.3029833E0,8.209446E0,3.0540497E0,9.108523E0,1.7115395E1,3.0851202E0,3.3935645E0,4.7492704E0,3.6492884E0,2.0485785E1,2.4343145E1],"tree_param":{"num_deleted":"0","num_feature":"13","num_nodes":"253","size_leaf_vector":"1"}},{"base_weights":[-5.726682E-5,-2.2472464E-1,3.486769E-1,-5.920396E-1,-1.05272636E-1,6.025863E-1,-3.46806E-2,-2.8678054E-1,-8.0884045E-1,-2.1184307E-1,3.561587E-1,3.446336E-1,7.5027305E-1,8.8476114E-2,-5.1409465E-1,-1.0710893E-1,-4.776607E-1,-1.0311488E0,-5.940884E-1,-8.004892E-2,-4.3415177E-1,-1.6422994E-1,4.667432E-1,5.546686E-1,3.256988E-1,-1.0179913E-1,2.5062945E-1,-1.520681E-1,-7.8821695E-1,1.291013E-1,-2.5967115E-1,-3.2033843E-1,-2.9349005E-1,-3.2282424E-1,-6.683824E-1,-2.88977E-1,-4.621053E-1,-2.7466795E-1,6.993404E-2,-5.707789E-1,-2.9158267E-1,2.2701852E-1,-5.757322E-1,3.3412156E-1,3.290947E-1,4.0193072E-1,8.963382E-1,1.7132685E-1,-2.6842862E-1,4.8083156E-2,3.3056223E-1,-2.0707278E-1,3.1871278E-2,-2.8418696E-1,-9.7414154E-1,-2.1877831E-1,6.2711895E-1,-3.915254E-1,1.5093166E-1,-2.5693265E-1,-1.597976E-1,-2.7088752E-1,-8.416172E-2,-6.01817E-1,-4.4748895E-2,-2.1160425E-1,-9.543493E-1,-1.8799302E-1,3.4269255E-1,-4.739168E-1,-2.7665284E-1,-3.9544436E-1,3.2276696E-1,-1.7582023E-1,5.391314E-1,1.5235001E-2,-8.3131224E-1,2.3671848E-1,2.7722016E-1,4.9199572E-1,-5.6149036E-2,1.1959406E-1,9.394552E-1,3.9653555E-2,5.6214297E-1,5.4483074E-3,-4.6901697E-1,-2.5344148E-1,2.556714E-1,-1.374241E-1,2.6613212E-1,8.0316514E-2,-2.3826481E-1,-7.3535156E-1,-3.609427E-1,-5.3358936E-1,7.134667E-2,2.6548994E-1,5.5459153E-2,-2.2170034E-1,-1.3245694E-1,-4.235997E-2,-1.6893843E-1,-8.350483E-2,-7.632061E-1,1.7061687E-1,-1.7476438E-1,-4.4064757E-1,-7.749633E-2,-9.845207E-2,-3.3271122E-1,-1.5349768E-1,-8.2695854E-1,-3.9155522E-1,-7.9328656E-1,-5.9222096E-1,-2.5326928E-1,-1.7946122E-2,2.431996E-1,-1.10304296E-1,-3.3116922E-1,